/*!
 * The following copyright notice may not be removed under any circumstances.
 * 
 * Copyright:
 * Copyright (c) 1992-97 Hewlett-Packard. All rights reserved.
 */
Cufon.registerFont({"w":1139,"face":{"font-family":"helv","font-weight":400,"font-stretch":"normal","units-per-em":"2048","panose-1":"2 11 6 4 2 2 2 3 2 4","ascent":"1638","descent":"-410","x-height":"29","bbox":"-339 -1905 2048 616","underline-thickness":"102","underline-position":"-154","unicode-range":"U+0020-U+FB01"},"glyphs":{" ":{"w":569},"!":{"d":"233,-349r-47,-667r0,-457r199,0r0,457r-47,667r-105,0xm184,-206r202,0r0,206r-202,0r0,-206","w":569},"\"":{"d":"143,-949r0,-521r149,0r0,521r-149,0xm435,-949r0,-521r149,0r0,521r-149,0","w":727},"#":{"d":"543,-1411r-62,437r254,0r62,-437r130,0r-62,437r218,0r-18,129r-218,0r-41,290r218,0r-18,129r-218,0r-61,428r-130,0r61,-428r-254,0r-61,428r-130,0r61,-428r-217,0r18,-129r217,0r41,-290r-217,0r18,-129r217,0r62,-437r130,0xm462,-845r-40,290r254,0r41,-290r-255,0"},"$":{"d":"95,-1052v-6,-249,179,-403,424,-414r0,-114r97,0r0,116v240,15,411,158,420,394r-173,0v-13,-141,-104,-226,-247,-242r0,496v249,59,446,140,449,418v2,264,-186,430,-449,438r0,200r-97,0r0,-201v-292,-19,-456,-164,-453,-467r177,0v7,200,89,292,276,310r0,-536v-240,-63,-418,-140,-424,-398xm519,-1314v-147,6,-246,92,-242,247v4,136,111,192,242,225r0,-472xm616,-116v164,-7,269,-88,268,-253v-1,-163,-118,-229,-268,-260r0,513"},"%":{"d":"428,-724v-184,0,-348,-165,-348,-350v0,-185,164,-351,348,-351v184,0,349,167,349,351v0,185,-165,350,-349,350xm428,-1281v-109,0,-205,98,-205,207v0,109,96,206,205,206v109,0,206,-97,206,-206v0,-109,-97,-207,-206,-207xm437,34r835,-1474r112,0r-835,1474r-112,0xm1392,6v-184,0,-348,-165,-348,-350v0,-185,164,-351,348,-351v184,0,349,167,349,351v0,185,-165,350,-349,350xm1392,-551v-109,0,-205,98,-205,207v0,109,96,206,205,206v109,0,206,-97,206,-206v0,-109,-97,-207,-206,-207","w":1821},"&":{"d":"419,-818v-70,-80,-152,-197,-157,-312v-8,-201,153,-335,359,-335v192,0,335,127,331,316v-3,150,-152,291,-275,362r275,338v34,-74,54,-160,62,-239r160,0v-10,127,-56,272,-110,375r257,313r-226,0r-134,-160v-109,112,-239,190,-438,193v-246,5,-439,-151,-433,-388v6,-249,138,-350,329,-463xm268,-375v-4,150,117,251,272,248v129,-3,250,-78,316,-157r-339,-413v-120,70,-245,175,-249,322xm607,-1312v-133,0,-209,124,-138,244v31,53,76,116,117,166v79,-51,186,-143,188,-241v2,-99,-68,-169,-167,-169","w":1366},"'":{"d":"121,-949r0,-521r149,0r0,521r-149,0","w":391},"(":{"d":"489,423v-204,-288,-350,-543,-350,-963v0,-418,147,-676,350,-962r123,0v-166,297,-281,560,-281,962v0,401,115,668,281,963r-123,0","w":682},")":{"d":"193,-1502v204,288,350,543,350,963v0,418,-147,676,-350,962r-123,0v166,-297,281,-560,281,-962v0,-401,-115,-668,-281,-963r123,0","w":682},"*":{"d":"459,-1478r-7,236r222,-79r39,118r-228,65r145,184r-101,73r-134,-195r-132,194r-101,-72r145,-186r-227,-64r38,-118r224,79r-8,-235r125,0","w":797},"+":{"d":"523,-440r-443,0r0,-150r443,0r0,-443r150,0r0,443r443,0r0,150r-443,0r0,443r-150,0r0,-443","w":1196},",":{"d":"178,0r0,-218r213,0v0,0,7,334,-49,414v-35,50,-87,87,-164,106r0,-95v89,-19,104,-91,110,-207r-110,0","w":569},"-":{"d":"90,-659r502,0r0,185r-502,0r0,-185","w":682},".":{"d":"178,-217r214,0r0,217r-214,0r0,-217","w":569},"\/":{"d":"603,-1508r-500,1548r-137,0r500,-1548r137,0","w":569},"0":{"d":"204,-153v-167,-231,-167,-864,0,-1095v90,-125,208,-192,365,-192v159,0,276,67,366,192v166,231,166,865,0,1095v-90,125,-207,192,-366,192v-157,0,-275,-67,-365,-192xm797,-267v97,-169,97,-698,0,-867v-54,-94,-127,-144,-228,-144v-101,0,-172,50,-226,144v-97,169,-97,698,0,867v54,94,125,144,226,144v101,0,174,-50,228,-144"},"1":{"d":"207,-1166v217,2,325,-99,381,-274r147,0r0,1440r-191,0r0,-1022r-337,0r0,-144"},"2":{"d":"584,-1440v255,0,455,173,455,424v0,106,-27,194,-81,262v-54,68,-157,143,-307,226v-163,89,-274,171,-333,245v-25,32,-45,68,-61,108r782,0r0,175r-986,0v0,-151,38,-276,113,-372v75,-96,217,-201,424,-315v101,-56,169,-107,206,-154v37,-47,55,-107,55,-180v2,-156,-131,-264,-292,-261v-194,3,-288,147,-292,351r-175,0v-8,-313,182,-509,492,-509"},"3":{"d":"459,-823v195,26,373,-40,373,-226v0,-142,-127,-234,-276,-231v-186,3,-263,122,-271,313r-175,0v-2,-295,162,-473,454,-473v252,0,456,137,456,373v0,133,-74,247,-178,306v130,55,227,181,227,341v0,272,-220,462,-500,459v-327,-4,-484,-156,-499,-473r189,0v22,213,95,309,316,313v168,3,303,-110,303,-273v0,-158,-110,-263,-262,-272v-49,-3,-121,-6,-157,1r0,-158"},"4":{"d":"51,-345r0,-168r666,-926r150,0r0,940r204,0r0,154r-204,0r0,345r-181,0r0,-345r-635,0xm686,-499r0,-657r-469,657r469,0"},"5":{"d":"559,-928v293,0,494,177,494,465v0,288,-208,502,-494,502v-280,0,-475,-150,-493,-406r187,0v19,159,135,251,314,251v176,0,295,-144,295,-325v0,-196,-124,-327,-319,-327v-111,0,-223,63,-266,135r-152,-10r104,-768r746,0r0,175r-611,0r-62,394v78,-55,168,-86,257,-86"},"6":{"d":"1061,-438v0,285,-205,477,-492,477v-157,0,-278,-61,-363,-183v-85,-122,-128,-294,-128,-519v0,-249,46,-440,139,-575v92,-135,223,-202,392,-202v250,0,415,146,423,385r-178,0v-12,-138,-99,-223,-245,-223v-111,0,-197,53,-257,160v-52,91,-81,216,-86,373v89,-114,203,-171,342,-171v273,0,453,201,453,478xm579,-754v-172,0,-291,139,-291,316v0,177,119,315,291,315v172,0,291,-138,291,-315v0,-177,-119,-316,-291,-316"},"7":{"d":"1071,-1251v-295,348,-494,731,-586,1251r-201,0v98,-509,301,-895,594,-1236r-802,0r0,-175r995,0r0,160"},"8":{"d":"1009,-1053v0,131,-84,241,-191,291v133,57,241,187,241,353v0,274,-210,448,-491,448v-282,0,-490,-174,-490,-448v0,-164,106,-297,239,-352v-105,-52,-190,-159,-190,-292v0,-239,192,-387,441,-387v249,0,441,148,441,387xm318,-1057v0,132,112,220,250,220v138,0,250,-87,250,-220v0,-132,-112,-221,-250,-221v-138,0,-250,88,-250,221xm868,-401v0,-165,-131,-280,-300,-280v-169,0,-299,115,-299,280v0,164,131,278,299,278v168,0,300,-114,300,-278"},"9":{"d":"570,-1439v337,5,483,265,483,632v0,271,-45,480,-136,627v-91,147,-219,220,-386,220v-251,0,-418,-146,-426,-385r174,0v13,142,101,232,252,232v108,0,192,-60,250,-181v43,-90,70,-208,83,-355v-89,110,-200,165,-333,165v-269,0,-445,-203,-445,-478v0,-284,199,-481,484,-477xm560,-646v169,0,283,-141,283,-316v0,-176,-113,-315,-283,-315v-170,0,-283,140,-283,315v0,176,113,316,283,316"},":":{"d":"178,-217r214,0r0,217r-214,0r0,-217xm178,-1059r214,0r0,217r-214,0r0,-217","w":569},";":{"d":"178,0r0,-218r213,0v0,149,7,336,-49,416v-35,50,-87,86,-164,105r0,-94v87,-17,110,-98,107,-209r-107,0xm178,-1059r214,0r0,217r-214,0r0,-217","w":569},"<":{"d":"98,-440r0,-150r1000,-424r0,163r-792,336r792,336r0,163","w":1196},"=":{"d":"80,-384r1036,0r0,151r-1036,0r0,-151xm80,-798r1036,0r0,151r-1036,0r0,-151","w":1196},">":{"d":"1098,-440r-1000,424r0,-163r792,-336r-792,-336r0,-163r1000,424r0,150","w":1196},"?":{"d":"818,-1099v4,-143,-94,-240,-239,-238v-203,4,-267,115,-288,318r-176,0v11,-290,172,-473,464,-476v245,-2,436,157,429,396v-6,193,-95,274,-222,394v-92,87,-139,160,-137,323r-176,0v-3,-229,65,-334,197,-455v86,-79,144,-132,148,-262xm461,-208r200,0r0,208r-200,0r0,-208"},"@":{"d":"1091,-1175v104,0,182,67,225,174r41,-142r144,0r-179,616v-16,48,-18,113,24,115v157,6,303,-267,303,-446v0,-294,-272,-522,-576,-522v-345,0,-624,298,-624,646v0,350,285,652,633,646v213,-3,422,-106,517,-235r135,0v-106,198,-360,359,-645,364v-428,8,-788,-349,-788,-775v0,-422,348,-775,768,-775v376,0,709,285,709,651v0,265,-237,575,-487,575v-71,0,-116,-52,-127,-121v-70,72,-167,121,-261,121v-183,0,-291,-149,-291,-341v0,-278,214,-551,479,-551xm776,-612v0,116,57,182,170,182v138,0,241,-136,277,-262v50,-174,15,-332,-136,-334v-177,-2,-311,220,-311,414","w":2079},"A":{"d":"584,-1470r227,0r528,1470r-214,0r-149,-426r-588,0r-154,426r-205,0xm688,-1254r-236,652r463,0","w":1366},"B":{"d":"1284,-436v-4,290,-222,436,-531,436r-601,0r0,-1470r646,0v233,-4,418,131,418,351v0,151,-83,271,-203,327v153,50,273,178,271,356xm1018,-1087v0,-163,-107,-212,-286,-213r-381,0r0,456r355,0v200,-1,312,-58,312,-243xm1086,-444v0,-188,-133,-239,-344,-239r-391,0r0,513r405,0v215,-1,330,-71,330,-274","w":1366},"C":{"d":"769,-136v252,0,392,-173,434,-405r192,0v-42,339,-274,580,-640,581v-422,1,-665,-331,-665,-774v0,-450,258,-776,691,-776v332,0,563,187,601,481r-192,0v-35,-192,-186,-306,-412,-305v-313,0,-483,264,-483,600v0,359,140,598,474,598","w":1479},"D":{"d":"1381,-734v0,420,-227,734,-627,734r-588,0r0,-1470r604,0v393,-1,611,320,611,736xm1176,-734v0,-328,-129,-566,-430,-566r-381,0r0,1130r364,0v307,-3,447,-233,447,-564","w":1479},"E":{"d":"176,0r0,-1470r1075,0r0,176r-876,0r0,449r800,0r0,176r-800,0r0,493r887,0r0,176r-1086,0","w":1366},"F":{"d":"176,0r0,-1470r1018,0r0,176r-819,0r0,449r717,0r0,176r-717,0r0,669r-199,0","w":1251},"G":{"d":"1269,-186v-118,145,-285,226,-487,226v-419,0,-684,-338,-684,-774v0,-441,273,-776,698,-776v315,0,585,205,618,481r-192,0v-37,-197,-201,-306,-438,-305v-305,1,-481,275,-481,603v0,355,158,597,491,601v175,2,325,-88,407,-221v33,-55,60,-169,57,-260r-461,0r0,-168r644,0r0,778r-124,0","w":1593},"H":{"d":"158,0r0,-1470r199,0r0,603r767,0r0,-603r199,0r0,1470r-199,0r0,-691r-767,0r0,691r-199,0","w":1479},"I":{"d":"186,0r0,-1470r199,0r0,1470r-199,0","w":569},"J":{"d":"444,-129v152,0,234,-122,234,-284r0,-1057r199,0r0,1057v2,281,-146,453,-421,453v-265,0,-435,-151,-421,-413r0,-102r186,0r0,102v-1,150,77,244,223,244","w":1024},"K":{"d":"156,0r0,-1470r199,0r0,714r716,-714r275,0r-623,601r635,869r-259,0r-522,-727r-222,214r0,513r-199,0","w":1366},"L":{"d":"156,0r0,-1470r199,0r0,1294r745,0r0,176r-944,0"},"M":{"d":"436,-1470r420,1251r417,-1251r286,0r0,1470r-193,0r0,-1244r-415,1244r-192,0r-416,-1240r0,1240r-193,0r0,-1470r286,0","w":1706},"N":{"d":"348,0r-192,0r0,-1470r239,0r736,1195r0,-1195r192,0r0,1470r-218,0r-757,-1199r0,1199","w":1479},"O":{"d":"796,40v-432,0,-716,-331,-716,-774v0,-444,284,-776,716,-776v434,0,717,331,717,776v0,444,-283,774,-717,774xm796,-136v318,0,512,-264,512,-598v0,-335,-193,-600,-512,-600v-317,0,-511,266,-511,600v0,334,194,598,511,598","w":1593},"P":{"d":"1274,-1065v0,279,-174,444,-455,445r-444,2r0,618r-199,0r0,-1470r643,0v272,-3,455,143,455,405xm1069,-1061v0,-180,-107,-238,-299,-239r-395,0r0,510r395,0v201,-1,299,-77,299,-271","w":1366},"Q":{"d":"1513,-734v0,238,-73,435,-212,575r197,159r-96,112r-220,-173v-109,67,-238,100,-386,101v-432,4,-716,-331,-716,-774v0,-444,284,-776,716,-776v434,0,717,331,717,776xm285,-734v0,334,194,600,511,598v85,-1,161,-18,228,-49r-156,-123r96,-120r184,147v105,-107,160,-264,160,-453v0,-335,-193,-600,-512,-600v-317,0,-511,266,-511,600","w":1593},"R":{"d":"1342,-1071v2,162,-78,287,-196,350v107,45,166,140,172,275v5,116,-8,275,25,363v8,20,29,36,58,50r0,32r-245,0v-23,-87,-28,-259,-32,-379v-7,-185,-81,-254,-273,-254r-472,0r0,634r-199,0r0,-1470r684,0v293,-1,474,122,478,399xm1137,-1058v0,-179,-95,-245,-281,-245r-477,0r0,497r492,0v182,-1,266,-73,266,-252","w":1479},"S":{"d":"683,-1510v318,0,540,169,552,466r-183,0v-17,-189,-158,-290,-369,-290v-203,0,-342,70,-342,255v0,57,19,99,58,127v82,60,346,107,489,144v244,62,382,144,382,414v0,288,-249,434,-562,434v-357,0,-611,-168,-608,-510r183,0v8,226,179,334,425,334v213,0,373,-61,373,-248v0,-71,-20,-124,-63,-157v-159,-121,-645,-136,-783,-284v-53,-57,-83,-130,-83,-227v-1,-292,225,-458,531,-458","w":1366},"T":{"d":"526,0r0,-1294r-497,0r0,-176r1193,0r0,176r-497,0r0,1294r-199,0","w":1251},"U":{"d":"741,-136v256,0,379,-155,379,-418r0,-916r199,0r0,931v3,360,-218,579,-578,579v-377,0,-579,-202,-579,-579r0,-931r199,0r0,916v-1,264,124,418,380,418","w":1479},"V":{"d":"262,-1470r422,1256r421,-1256r220,0r-535,1470r-214,0r-535,-1470r221,0","w":1366},"W":{"d":"418,0r-385,-1470r215,0r274,1218v3,18,4,30,4,37v1,-26,10,-68,17,-93r311,-1162r224,0r322,1211v3,19,5,32,5,41v1,-25,9,-69,16,-96r265,-1156r214,0r-385,1470r-214,0r-333,-1194v-4,-19,-6,-32,-6,-39v-1,27,-10,69,-18,96r-312,1137r-214,0","w":1933},"X":{"d":"1083,0r-403,-591r-399,591r-242,0r522,-734r-489,-736r246,0r361,574r388,-574r239,0r-515,723r536,747r-244,0","w":1366},"Y":{"d":"584,-588r-555,-882r233,0r422,713r423,-713r230,0r-554,885r0,585r-199,0r0,-588","w":1366},"Z":{"d":"47,-173r907,-1121r-836,0r0,-176r1085,0r0,173r-907,1121r906,0r0,176r-1155,0r0,-173","w":1251},"[":{"d":"129,402r0,-1882r383,0r0,145r-221,0r0,1592r221,0r0,145r-383,0","w":569},"\\":{"d":"466,40r-500,-1548r137,0r500,1548r-137,0","w":569},"]":{"d":"440,402r-383,0r0,-145r221,0r0,-1592r-221,0r0,-145r383,0r0,1882","w":569},"^":{"d":"550,-1412r439,877r-157,0r-353,-706r-350,706r-157,0r438,-877r140,0","w":961},"_":{"d":"0,254r0,-104r1139,0r0,104r-1139,0"},"`":{"d":"297,-1214r-268,-288r223,0r180,288r-135,0","w":682},"a":{"d":"791,-140v-82,101,-223,169,-376,169v-201,0,-343,-116,-341,-311v2,-210,137,-309,339,-335r245,-31v78,-5,133,-36,130,-123v-4,-126,-107,-184,-246,-183v-150,1,-232,71,-249,205r-166,0v19,-242,175,-353,442,-353v243,0,399,101,399,331r0,588v-2,60,64,69,118,52r0,130v-28,11,-70,21,-104,22v-120,-1,-172,-55,-191,-161xm262,-307v-1,119,69,187,188,187v152,0,295,-83,329,-199v17,-57,8,-148,9,-221v-124,60,-369,44,-466,118v-39,30,-60,66,-60,115"},"b":{"d":"1059,-567v0,340,-151,592,-466,596v-130,2,-237,-62,-305,-161r0,132r-169,0r0,-1470r180,0r0,539v79,-115,180,-171,305,-171v292,0,455,228,455,535xm299,-484v0,211,88,357,285,357v213,0,288,-178,287,-417v-1,-242,-67,-394,-286,-394v-99,0,-171,36,-217,109v-46,73,-69,188,-69,345"},"c":{"d":"535,-126v157,0,244,-112,269,-259r173,0v-33,252,-178,413,-449,414v-300,1,-467,-246,-467,-565v0,-324,177,-566,485,-566v255,0,423,152,431,396r-173,0v-13,-148,-107,-243,-264,-241v-202,2,-291,185,-291,411v0,241,71,410,286,410","w":1024},"d":{"d":"72,-565v0,-297,166,-537,444,-537v139,0,253,71,326,187r0,-555r180,0r0,1470r-167,0r0,-146v-66,106,-181,177,-314,175v-307,-4,-469,-262,-469,-594xm551,-125v185,3,291,-161,291,-359v0,-146,-26,-259,-76,-338v-50,-79,-122,-118,-215,-118v-227,0,-290,151,-291,403v-1,234,81,409,291,412"},"e":{"d":"1038,-332v-49,224,-206,360,-469,361v-311,1,-487,-219,-487,-542v0,-338,185,-590,507,-589v314,2,495,281,466,630r-782,0v14,217,97,344,313,346v136,2,255,-90,274,-206r178,0xm581,-941v-181,-1,-293,142,-308,324r596,0v-9,-194,-97,-323,-288,-324"},"f":{"d":"465,-1329v-73,0,-109,52,-108,129r0,130r179,0r0,149r-179,0r0,921r-180,0r0,-921r-148,0r0,-149r148,0r0,-182v-4,-196,151,-256,359,-236r0,162","w":569},"g":{"d":"294,124v19,111,103,179,231,179v232,-1,326,-165,317,-417v-74,94,-171,143,-291,143v-308,-1,-469,-262,-469,-594v0,-298,170,-537,452,-537v136,0,247,70,319,186r0,-154r169,0r0,991v-2,352,-149,529,-494,531v-242,1,-390,-115,-418,-328r184,0xm560,-127v185,3,291,-160,291,-357v0,-151,-25,-264,-73,-340v-48,-76,-121,-114,-218,-114v-227,0,-289,150,-290,401v-2,233,82,407,290,410"},"h":{"d":"609,-938v-193,0,-296,159,-296,365r0,573r-180,0r0,-1470r180,0r0,545v70,-103,190,-177,324,-177v235,0,369,134,369,369r0,733r-180,0r0,-688v-1,-170,-54,-250,-217,-250"},"i":{"d":"139,0r0,-1070r180,0r0,1070r-180,0xm137,-1470r184,0r0,204r-184,0r0,-204","w":455},"j":{"d":"-32,265v112,1,168,-6,168,-119r0,-1216r180,0r0,1216v-1,198,-76,279,-272,281v-27,0,-53,-2,-76,-5r0,-157xm134,-1470r184,0r0,204r-184,0r0,-204","w":455},"k":{"d":"137,0r0,-1470r180,0r0,847r452,-447r229,0r-407,397r434,673r-235,0r-332,-544r-141,138r0,406r-180,0","w":1024},"l":{"d":"137,0r0,-1470r180,0r0,1470r-180,0","w":455},"m":{"d":"586,-938v-174,0,-273,174,-273,365r0,573r-180,0r0,-1070r171,0r0,159v71,-106,196,-191,326,-191v139,0,244,69,288,172v68,-98,185,-172,306,-172v223,0,351,128,351,351r0,751r-180,0r0,-690v1,-150,-57,-248,-196,-248v-170,0,-255,151,-255,337r0,601r-180,0r0,-733v1,-127,-57,-205,-178,-205","w":1706},"n":{"d":"595,-938v-187,0,-282,162,-282,365r0,573r-180,0r0,-1070r171,0r0,158v69,-107,193,-190,333,-190v235,0,369,134,369,369r0,733r-180,0r0,-672v-1,-180,-59,-266,-231,-266"},"o":{"d":"569,29v-305,0,-497,-248,-497,-565v0,-319,192,-566,497,-566v307,0,498,247,498,566v0,319,-191,565,-498,565xm569,-126v206,0,310,-185,310,-410v0,-226,-104,-411,-310,-411v-206,0,-309,186,-309,411v0,226,102,410,309,410"},"p":{"d":"593,29v-124,1,-225,-52,-294,-147r0,541r-180,0r0,-1493r171,0r0,152v74,-115,184,-184,314,-184v292,0,455,228,455,535v0,340,-151,593,-466,596xm299,-484v0,211,88,357,285,357v213,0,288,-178,287,-417v-1,-242,-67,-394,-286,-394v-99,0,-171,36,-217,109v-46,73,-69,188,-69,345"},"q":{"d":"832,-124v-71,96,-174,154,-296,153v-306,-3,-464,-262,-464,-593v0,-295,163,-538,439,-538v144,0,266,80,332,206r0,-174r169,0r0,1493r-180,0r0,-547xm545,-125v183,0,287,-162,287,-359v0,-146,-24,-259,-74,-338v-50,-79,-121,-118,-212,-118v-225,0,-285,154,-286,404v-1,232,79,411,285,411"},"r":{"d":"680,-909v-225,-15,-342,116,-342,336r0,573r-180,0r0,-1070r171,0r0,183v65,-124,190,-250,351,-206r0,184","w":682},"s":{"d":"500,-1102v238,0,406,122,415,342r-169,0v-11,-123,-108,-187,-246,-187v-131,0,-229,38,-229,153v0,38,14,67,41,86v60,42,247,75,349,102v179,47,289,97,289,290v0,225,-185,347,-424,345v-292,-3,-441,-104,-460,-371r173,0v20,158,106,215,287,216v145,1,243,-49,246,-180v0,-37,-13,-67,-41,-85v-126,-79,-470,-94,-566,-203v-40,-45,-64,-103,-64,-180v0,-213,172,-328,399,-328","w":1024},"t":{"d":"357,-218v1,75,85,83,169,78r0,139v-61,9,-106,14,-134,14v-163,-2,-215,-64,-215,-231r0,-705r-148,0r0,-147r148,0r0,-300r180,0r0,300r169,0r0,147r-169,0r0,705","w":569},"u":{"d":"503,29v-243,0,-364,-121,-364,-364r0,-735r180,0r0,690v1,173,56,254,221,254v189,0,282,-167,282,-373r0,-571r180,0r0,1070r-171,0r0,-163v-65,109,-191,192,-328,192"},"v":{"d":"226,-1070r287,876r296,-876r199,0r-399,1070r-193,0r-400,-1070r210,0","w":1024},"w":{"d":"333,0r-304,-1070r198,0r205,852r209,-852r200,0r215,858r217,-858r179,0r-303,1070r-193,0r-221,-836r-209,836r-193,0","w":1479},"x":{"d":"779,0r-267,-408r-262,408r-227,0r380,-552r-360,-518r232,0r246,381r248,-381r223,0r-360,521r372,549r-225,0","w":1024},"y":{"d":"228,-1070r286,885r290,-885r197,0r-407,1105v-63,165,-120,271,-168,323v-59,65,-193,93,-307,65r0,-167v27,10,62,15,103,16v41,0,75,-16,102,-50v26,-33,70,-109,96,-204r-397,-1088r205,0","w":1024},"z":{"d":"63,-141r642,-779r-594,0r0,-150r835,0r0,141r-642,779r657,0r0,150r-898,0r0,-141","w":1024},"{":{"d":"421,141v3,123,43,133,177,126r0,139v-206,18,-334,-60,-335,-250v0,-182,8,-423,-45,-532v-32,-66,-74,-101,-132,-101r0,-120v58,0,100,-35,132,-101v53,-109,45,-351,45,-532v1,-190,130,-268,335,-250r0,139v-134,-7,-177,3,-177,126r0,206v0,191,-24,321,-71,390v-25,37,-62,64,-110,81v48,19,85,47,110,83v47,69,71,199,71,390r0,206","w":684},"|":{"d":"193,512r0,-2048r149,0r0,2048r-149,0","w":532},"}":{"d":"86,-1480v206,-18,334,60,335,250v0,182,-8,423,45,532v32,66,74,101,132,101r0,120v-58,0,-100,35,-132,101v-53,109,-45,351,-45,532v-1,190,-129,268,-335,250r0,-139v134,7,177,-3,177,-126r0,-206v0,-191,24,-321,71,-390v25,-36,62,-64,110,-83v-48,-17,-85,-44,-110,-81v-47,-69,-71,-199,-71,-390r0,-206v-3,-123,-43,-133,-177,-126r0,-139","w":684},"~":{"d":"372,-516v-89,0,-139,72,-176,147r-71,-116v63,-106,113,-174,254,-174v163,0,289,120,438,140v86,-8,139,-76,183,-147r71,116v-73,100,-120,174,-254,174v-169,0,-265,-140,-445,-140","w":1196},"\u00a0":{"w":569},"\u00a1":{"d":"395,-723r47,667r0,457r-199,0r0,-457r47,-667r105,0xm444,-866r-202,0r0,-206r202,0r0,206","w":682},"\u00a2":{"d":"1051,-375v-30,286,-258,449,-580,392r-62,221r-87,0r69,-246v-180,-79,-287,-274,-287,-529v0,-357,219,-613,591,-561r53,-190r87,0r-59,210v153,56,255,190,275,373r-173,0v-18,-102,-65,-176,-145,-216r-220,786v198,42,340,-69,365,-240r173,0xm653,-946v-249,-32,-364,161,-361,409v2,184,40,302,143,371"},"\u00a3":{"d":"872,-136v56,0,127,-33,155,-65r87,137v-50,52,-172,104,-268,104v-143,0,-257,-106,-425,-99v-82,3,-191,43,-239,83r-104,-140v118,-79,248,-218,248,-381v0,-57,-20,-111,-46,-156r-212,0r0,-127r143,0v-50,-98,-80,-153,-82,-277v-4,-255,207,-416,472,-416v292,0,475,179,472,470r-184,0v-7,-186,-101,-309,-284,-313v-198,-5,-334,151,-269,350v13,39,56,129,86,186r340,0r0,127r-288,0v12,46,20,95,20,149v0,127,-103,269,-198,337v86,-23,168,-42,237,-42v123,0,226,73,339,73"},"\u00a4":{"d":"569,-360v195,0,357,-161,357,-356v0,-195,-162,-357,-357,-357v-195,0,-356,162,-356,357v0,195,161,356,356,356xm879,-315v-167,137,-451,135,-621,2r-105,104r-96,-96r107,-106v-133,-166,-130,-444,-1,-612r-106,-105r96,-96r107,105v169,-136,452,-137,618,2r108,-107r96,96r-108,107v133,163,135,445,0,609r108,107r-96,96"},"\u00a5":{"d":"92,-662r0,-116r309,0r-395,-633r208,0r356,601r356,-601r207,0r-394,633r310,0r0,116r-382,0r-4,6r0,172r386,0r0,116r-386,0r0,368r-185,0r0,-368r-386,0r0,-116r386,0r0,-172r-4,-6r-382,0"},"\u00a6":{"d":"193,342r0,-683r149,0r0,683r-149,0xm193,-682r0,-683r149,0r0,683r-149,0","w":532},"\u00a7":{"d":"203,-1166v0,-207,158,-344,370,-344v229,0,369,145,371,372r-174,0v-7,-127,-71,-217,-197,-218v-112,-2,-200,69,-199,177v0,37,24,77,72,119v48,42,121,89,220,139v140,71,238,137,296,197v58,60,87,128,87,203v0,154,-94,281,-217,339v62,61,112,151,112,221v0,210,-168,344,-385,344v-235,0,-383,-143,-385,-375r174,0v7,132,78,219,211,221v118,1,214,-66,214,-177v0,-34,-25,-74,-75,-120v-50,-46,-125,-99,-227,-159v-163,-96,-267,-169,-313,-217v-46,-48,-70,-109,-70,-183v0,-146,96,-270,219,-321v-60,-64,-104,-143,-104,-218xm738,-264v124,-54,198,-237,74,-352v-74,-69,-306,-176,-407,-252v-78,32,-146,109,-146,202v0,47,19,84,50,118v45,48,335,207,429,284"},"\u00a8":{"d":"82,-1447r186,0r0,210r-186,0r0,-210xm414,-1447r186,0r0,210r-186,0r0,-210","w":682},"\u00a9":{"d":"770,-397v141,0,234,-77,264,-194r136,0v-39,190,-187,324,-407,326v-251,2,-423,-210,-423,-470v0,-278,168,-471,439,-471v215,0,361,128,391,317r-136,0v-25,-115,-119,-186,-259,-185v-181,0,-281,148,-281,339v0,181,106,339,276,338xm755,-1503v425,0,784,345,784,768v0,422,-359,767,-784,767v-425,0,-783,-345,-783,-767v0,-422,359,-768,783,-768xm1382,-735v0,-347,-282,-638,-627,-638v-344,0,-626,292,-626,638v0,346,282,637,626,637v344,0,627,-291,627,-637","w":1509},"\u00aa":{"d":"709,-842v-90,23,-188,7,-190,-89v-56,61,-145,100,-244,100v-132,0,-226,-64,-226,-188v0,-127,103,-191,232,-206r177,-20v33,-4,52,-29,51,-68v-3,-66,-73,-90,-152,-90v-91,0,-150,32,-161,109r-112,0v12,-151,115,-216,283,-216v157,0,267,55,267,197r0,339v-2,49,32,54,76,42xm300,-936v119,-3,215,-51,209,-184r0,-41v-79,32,-235,24,-299,67v-21,15,-31,36,-31,63v1,68,49,97,121,95xm72,-723r614,0r0,98r-614,0r0,-98","w":758},"\u00ab":{"d":"521,-733r-216,167r216,167r0,178r-322,-249r0,-192r322,-249r0,178xm940,-733r-216,167r216,167r0,178r-322,-249r0,-192r322,-249r0,178"},"\u00ac":{"d":"965,-648r-885,0r0,-151r1036,0r0,578r-151,0r0,-427","w":1196},"\u00ad":{"d":"90,-659r502,0r0,185r-502,0r0,-185","w":682},"\u00ae":{"d":"1078,-939v2,149,-99,241,-239,258r255,389r-161,0r-229,-384r-148,1r0,383r-140,0r0,-887r355,0v176,-2,305,77,307,240xm934,-938v4,-164,-216,-122,-378,-128r0,273r189,0v120,-1,187,-35,189,-145xm755,-1503v425,0,784,345,784,768v0,422,-359,767,-784,767v-425,0,-783,-345,-783,-767v0,-422,359,-768,783,-768xm1382,-735v0,-347,-282,-638,-627,-638v-344,0,-626,292,-626,638v0,346,282,637,626,637v344,0,627,-291,627,-637","w":1509},"\u00af":{"d":"20,-1283r0,-118r642,0r0,118r-642,0","w":682},"\u00b0":{"d":"111,-1138v0,-164,135,-299,298,-299v164,0,299,135,299,299v0,163,-136,298,-299,298v-163,0,-298,-136,-298,-298xm409,-934v112,0,205,-92,205,-204v0,-112,-93,-205,-205,-205v-112,0,-204,93,-204,205v0,112,92,204,204,204","w":819},"\u00b1":{"d":"523,-558r-443,0r0,-150r443,0r0,-329r150,0r0,329r443,0r0,150r-443,0r0,329r-150,0r0,-329xm80,-147r1036,0r0,151r-1036,0r0,-151","w":1196},"\u00b2":{"d":"360,-1440v166,0,304,104,302,264v0,62,-17,113,-52,154v-35,41,-103,84,-199,135v-130,69,-192,102,-242,188r493,0r0,126r-654,0v0,-92,25,-167,74,-225v49,-58,142,-120,275,-191v101,-54,162,-74,162,-193v0,-93,-71,-141,-170,-140v-129,1,-179,65,-183,196r-132,0v-4,-198,125,-314,326,-314","w":682},"\u00b3":{"d":"265,-1076v118,8,226,-20,226,-122v0,-87,-63,-124,-156,-123v-112,0,-169,57,-174,165r-125,0v0,-187,123,-284,316,-284v159,0,279,81,282,229v1,77,-51,147,-117,184v88,28,149,99,149,204v0,175,-142,272,-328,270v-210,-2,-318,-88,-328,-284r141,0v12,119,62,164,191,165v108,1,181,-47,182,-148v2,-133,-115,-159,-259,-150r0,-106","w":682},"\u00b4":{"d":"250,-1214r182,-288r221,0r-264,288r-139,0","w":682},"\u00b5":{"d":"545,-126v167,2,277,-165,277,-344r0,-600r180,0r0,1070r-171,0r0,-103v-77,89,-187,132,-330,132v-84,0,-145,-29,-182,-80r0,479r-180,0r0,-1498r180,0r0,658v0,176,62,284,226,286"},"\u00b6":{"d":"37,-1086v0,-238,193,-384,441,-384r540,0r0,1819r-146,0r0,-1694r-250,0r0,1694r-144,0r0,-1052v-247,3,-441,-146,-441,-383","w":1100},"\u00b7":{"d":"158,-830r214,0r0,217r-214,0r0,-217","w":569},"\u00b8":{"d":"375,278v-1,-80,-109,-96,-179,-63r-34,-38r131,-179r97,0r-93,128v123,-26,235,26,233,147v-3,150,-170,217,-332,176v-36,-9,-71,-19,-106,-32r34,-82v79,32,251,62,249,-57","w":682},"\u00b9":{"d":"88,-1275v143,6,214,-57,258,-165r110,0r0,867r-143,0r0,-608r-225,1r0,-95","w":682},"\u00ba":{"d":"375,-831v-209,0,-324,-128,-324,-339v0,-212,115,-341,324,-341v209,0,324,129,324,341v0,211,-115,339,-324,339xm375,-936v128,0,187,-97,187,-234v0,-138,-59,-236,-187,-236v-128,0,-187,98,-187,236v0,138,59,234,187,234xm74,-724r602,0r0,99r-602,0r0,-99","w":748},"\u00bb":{"d":"199,-399r216,-167r-216,-167r0,-178r322,249r0,192r-322,249r0,-178xm618,-399r216,-167r-216,-167r0,-178r322,249r0,192r-322,249r0,-178"},"\u2215":{"d":"681,-1441r-902,1485r-118,0r902,-1485r118,0","w":342},"\u00bc":{"d":"917,-201r0,-125r397,-512r108,0r0,527r126,0r0,110r-126,0r0,201r-135,0r0,-201r-370,0xm1287,-311r0,-321r-249,321r249,0xm150,-1275v143,6,214,-57,258,-165r110,0r0,867r-143,0r0,-608r-225,1r0,-95xm1359,-1441r-902,1485r-118,0r902,-1485r118,0","w":1708},"\u00bd":{"d":"1281,-867v166,0,304,104,302,264v0,62,-18,113,-53,154v-35,41,-102,84,-198,135v-130,69,-192,102,-242,188r493,0r0,126r-654,0v0,-92,24,-168,73,-226v49,-58,143,-119,276,-190v101,-54,162,-74,162,-193v0,-93,-71,-141,-170,-140v-129,1,-179,65,-183,196r-132,0v-4,-198,125,-314,326,-314xm88,-1275v143,6,214,-57,258,-165r110,0r0,867r-143,0r0,-608r-225,1r0,-95xm1251,-1441r-902,1485r-118,0r902,-1485r118,0","w":1708},"\u00be":{"d":"1028,-201r0,-125r397,-512r108,0r0,527r126,0r0,110r-126,0r0,201r-135,0r0,-201r-370,0xm1398,-311r0,-321r-249,321r249,0xm347,-1076v118,8,226,-20,226,-122v0,-87,-63,-124,-156,-123v-112,0,-169,57,-174,165r-125,0v0,-187,123,-284,316,-284v159,0,279,81,282,229v1,77,-51,147,-117,184v88,28,149,99,149,204v0,175,-142,272,-328,270v-210,-2,-318,-88,-328,-284r141,0v12,119,62,164,191,165v108,1,181,-47,182,-148v2,-133,-115,-159,-259,-150r0,-106xm1440,-1441r-902,1485r-118,0r902,-1485r118,0","w":1708},"\u00bf":{"d":"376,17v-4,143,94,240,239,238v209,-3,279,-110,296,-318r168,0v-7,293,-170,476,-464,476v-245,0,-436,-157,-429,-396v6,-193,95,-274,222,-394v92,-87,139,-160,137,-323r176,0v3,229,-65,334,-197,455v-86,79,-144,132,-148,262xm733,-874r-200,0r0,-208r200,0r0,208","w":1251},"\u00c0":{"d":"654,-1614r-268,-288r223,0r180,288r-135,0xm584,-1470r227,0r528,1470r-214,0r-149,-426r-588,0r-154,426r-205,0xm688,-1254r-236,652r463,0","w":1366},"\u00c1":{"d":"600,-1614r182,-288r221,0r-264,288r-139,0xm584,-1470r227,0r528,1470r-214,0r-149,-426r-588,0r-154,426r-205,0xm688,-1254r-236,652r463,0","w":1366},"\u00c2":{"d":"792,-1902r203,288r-163,0r-135,-192r-135,192r-163,0r203,-288r190,0xm584,-1470r227,0r528,1470r-214,0r-149,-426r-588,0r-154,426r-205,0xm688,-1254r-236,652r463,0","w":1366},"\u00c3":{"d":"546,-1728v-54,0,-82,40,-92,91r-99,0v29,-139,65,-222,209,-222v107,0,189,75,296,75v54,0,81,-41,92,-91r99,0v-31,137,-66,222,-209,222v-100,0,-194,-75,-296,-75xm584,-1470r227,0r528,1470r-214,0r-149,-426r-588,0r-154,426r-205,0xm688,-1254r-236,652r463,0","w":1366},"\u00c4":{"d":"438,-1847r186,0r0,210r-186,0r0,-210xm770,-1847r186,0r0,210r-186,0r0,-210xm584,-1470r227,0r528,1470r-214,0r-149,-426r-588,0r-154,426r-205,0xm688,-1254r-236,652r463,0","w":1366},"\u00c5":{"d":"686,-1528v-103,0,-188,-85,-188,-188v0,-103,85,-188,188,-188v103,0,188,85,188,188v0,103,-85,188,-188,188xm686,-1609v59,0,107,-49,107,-107v0,-59,-49,-107,-107,-107v-59,0,-107,49,-107,107v0,59,49,107,107,107xm584,-1470r227,0r528,1470r-214,0r-149,-426r-588,0r-154,426r-205,0xm688,-1254r-236,652r463,0","w":1366},"\u00c6":{"d":"939,0r0,-426r-545,0r-167,426r-211,0r599,-1470r1312,0r0,176r-799,0r0,449r729,0r0,176r-729,0r0,493r820,0r0,176r-1009,0xm738,-1294r-273,692r474,0r0,-692r-201,0","w":2048},"\u00c7":{"d":"771,278v-1,-80,-109,-96,-179,-63r-34,-38r131,-179r97,0r-93,128v123,-26,235,26,233,147v-3,150,-170,217,-332,176v-36,-9,-71,-19,-106,-32r34,-82v79,32,251,62,249,-57xm769,-136v252,0,392,-173,434,-405r192,0v-42,339,-274,580,-640,581v-422,1,-665,-331,-665,-774v0,-450,258,-776,691,-776v332,0,563,187,601,481r-192,0v-35,-192,-186,-306,-412,-305v-313,0,-483,264,-483,600v0,359,140,598,474,598","w":1479},"\u00c8":{"d":"693,-1614r-268,-288r223,0r180,288r-135,0xm176,0r0,-1470r1075,0r0,176r-876,0r0,449r800,0r0,176r-800,0r0,493r887,0r0,176r-1086,0","w":1366},"\u00c9":{"d":"639,-1614r182,-288r221,0r-264,288r-139,0xm176,0r0,-1470r1075,0r0,176r-876,0r0,449r800,0r0,176r-800,0r0,493r887,0r0,176r-1086,0","w":1366},"\u00ca":{"d":"831,-1902r203,288r-163,0r-135,-192r-135,192r-163,0r203,-288r190,0xm176,0r0,-1470r1075,0r0,176r-876,0r0,449r800,0r0,176r-800,0r0,493r887,0r0,176r-1086,0","w":1366},"\u00cb":{"d":"477,-1847r186,0r0,210r-186,0r0,-210xm809,-1847r186,0r0,210r-186,0r0,-210xm176,0r0,-1470r1075,0r0,176r-876,0r0,449r800,0r0,176r-800,0r0,493r887,0r0,176r-1086,0","w":1366},"\u00cc":{"d":"242,-1614r-268,-288r223,0r180,288r-135,0xm186,0r0,-1470r199,0r0,1470r-199,0","w":569},"\u00cd":{"d":"188,-1614r182,-288r221,0r-264,288r-139,0xm186,0r0,-1470r199,0r0,1470r-199,0","w":569},"\u00ce":{"d":"382,-1902r203,288r-163,0r-135,-192r-135,192r-163,0r203,-288r190,0xm188,0r0,-1470r199,0r0,1470r-199,0","w":569},"\u00cf":{"d":"27,-1847r186,0r0,210r-186,0r0,-210xm359,-1847r186,0r0,210r-186,0r0,-210xm187,0r0,-1470r199,0r0,1470r-199,0","w":569},"\u00d0":{"d":"1381,-734v0,421,-230,734,-631,734r-592,0r0,-666r-158,0r0,-137r158,0r0,-667r608,0v395,-1,615,319,615,736xm1176,-734v0,-329,-132,-566,-435,-566r-384,0r0,497r401,0r0,137r-401,0r0,496r368,0v309,-2,451,-232,451,-564","w":1479},"\u00d1":{"d":"588,-1728v-54,0,-82,40,-92,91r-99,0v29,-139,65,-222,209,-222v107,0,189,75,296,75v54,0,81,-41,92,-91r99,0v-31,137,-66,222,-209,222v-100,0,-194,-75,-296,-75xm348,0r-192,0r0,-1470r239,0r736,1195r0,-1195r192,0r0,1470r-218,0r-757,-1199r0,1199","w":1479},"\u00d2":{"d":"753,-1614r-268,-288r223,0r180,288r-135,0xm796,40v-432,0,-716,-331,-716,-774v0,-444,284,-776,716,-776v434,0,717,331,717,776v0,444,-283,774,-717,774xm796,-136v318,0,512,-264,512,-598v0,-335,-193,-600,-512,-600v-317,0,-511,266,-511,600v0,334,194,598,511,598","w":1593},"\u00d3":{"d":"699,-1614r182,-288r221,0r-264,288r-139,0xm796,40v-432,0,-716,-331,-716,-774v0,-444,284,-776,716,-776v434,0,717,331,717,776v0,444,-283,774,-717,774xm796,-136v318,0,512,-264,512,-598v0,-335,-193,-600,-512,-600v-317,0,-511,266,-511,600v0,334,194,598,511,598","w":1593},"\u00d4":{"d":"891,-1902r203,288r-163,0r-135,-192r-135,192r-163,0r203,-288r190,0xm796,40v-432,0,-716,-331,-716,-774v0,-444,284,-776,716,-776v434,0,717,331,717,776v0,444,-283,774,-717,774xm796,-136v318,0,512,-264,512,-598v0,-335,-193,-600,-512,-600v-317,0,-511,266,-511,600v0,334,194,598,511,598","w":1593},"\u00d5":{"d":"645,-1728v-54,0,-82,40,-92,91r-99,0v29,-139,65,-222,209,-222v107,0,189,75,296,75v54,0,81,-41,92,-91r99,0v-31,137,-66,222,-209,222v-100,0,-194,-75,-296,-75xm796,40v-432,0,-716,-331,-716,-774v0,-444,284,-776,716,-776v434,0,717,331,717,776v0,444,-283,774,-717,774xm796,-136v318,0,512,-264,512,-598v0,-335,-193,-600,-512,-600v-317,0,-511,266,-511,600v0,334,194,598,511,598","w":1593},"\u00d6":{"d":"537,-1847r186,0r0,210r-186,0r0,-210xm869,-1847r186,0r0,210r-186,0r0,-210xm796,40v-432,0,-716,-331,-716,-774v0,-444,284,-776,716,-776v434,0,717,331,717,776v0,444,-283,774,-717,774xm796,-136v318,0,512,-264,512,-598v0,-335,-193,-600,-512,-600v-317,0,-511,266,-511,600v0,334,194,598,511,598","w":1593},"\u00d7":{"d":"596,-409r-410,410r-106,-106r410,-410r-410,-410r106,-106r410,410r410,-410r106,106r-410,410r410,410r-106,106","w":1196},"\u00d8":{"d":"797,-136v318,0,512,-264,512,-598v0,-154,-34,-282,-103,-385r-764,836v93,98,211,147,355,147xm1514,-734v0,444,-283,774,-717,774v-196,0,-358,-60,-485,-180r-168,184r-64,-58r172,-189v-113,-138,-168,-315,-171,-531v-6,-444,284,-776,716,-776v197,0,359,60,485,179r168,-183r64,58r-172,188v115,139,172,317,172,534xm797,-1334v-317,-2,-516,266,-511,600v2,153,35,280,102,383r764,-837v-92,-97,-210,-146,-355,-146","w":1593},"\u00d9":{"d":"697,-1614r-268,-288r223,0r180,288r-135,0xm741,-136v256,0,379,-155,379,-418r0,-916r199,0r0,931v3,360,-218,579,-578,579v-377,0,-579,-202,-579,-579r0,-931r199,0r0,916v-1,264,124,418,380,418","w":1479},"\u00da":{"d":"643,-1614r182,-288r221,0r-264,288r-139,0xm741,-136v256,0,379,-155,379,-418r0,-916r199,0r0,931v3,360,-218,579,-578,579v-377,0,-579,-202,-579,-579r0,-931r199,0r0,916v-1,264,124,418,380,418","w":1479},"\u00db":{"d":"835,-1902r203,288r-163,0r-135,-192r-135,192r-163,0r203,-288r190,0xm741,-136v256,0,379,-155,379,-418r0,-916r199,0r0,931v3,360,-218,579,-578,579v-377,0,-579,-202,-579,-579r0,-931r199,0r0,916v-1,264,124,418,380,418","w":1479},"\u00dc":{"d":"481,-1847r186,0r0,210r-186,0r0,-210xm813,-1847r186,0r0,210r-186,0r0,-210xm741,-136v256,0,379,-155,379,-418r0,-916r199,0r0,931v3,360,-218,579,-578,579v-377,0,-579,-202,-579,-579r0,-931r199,0r0,916v-1,264,124,418,380,418","w":1479},"\u00dd":{"d":"586,-1614r182,-288r221,0r-264,288r-139,0xm584,-588r-555,-882r233,0r422,713r423,-713r230,0r-554,885r0,585r-199,0r0,-588","w":1366},"\u00de":{"d":"1274,-800v0,254,-189,426,-448,425r-451,-1r0,376r-199,0r0,-1470r199,0r0,244r451,-1v259,-5,448,172,448,427xm770,-545v179,1,298,-84,299,-255v0,-172,-119,-257,-299,-257r-395,0r0,512r395,0","w":1366},"\u00df":{"d":"613,-1335v-201,2,-296,108,-296,312r0,1023r-180,0r0,-1075v1,-284,181,-416,478,-416v260,0,480,130,482,368v1,122,-56,226,-160,301v133,56,232,180,232,337v0,335,-183,515,-519,514v-36,0,-78,-5,-106,-13r0,-155v30,6,64,13,96,13v214,1,341,-103,341,-310v0,-214,-134,-290,-354,-292v-31,0,-55,3,-73,8r0,-160v188,27,367,-44,363,-226v-4,-149,-142,-231,-304,-229","w":1251},"\u00e0":{"d":"505,-1214r-268,-288r223,0r180,288r-135,0xm791,-140v-82,101,-223,169,-376,169v-201,0,-343,-116,-341,-311v2,-210,137,-309,339,-335r245,-31v78,-5,133,-36,130,-123v-4,-126,-107,-184,-246,-183v-150,1,-232,71,-249,205r-166,0v19,-242,175,-353,442,-353v243,0,399,101,399,331r0,588v-2,60,64,69,118,52r0,130v-28,11,-70,21,-104,22v-120,-1,-172,-55,-191,-161xm262,-307v-1,119,69,187,188,187v152,0,295,-83,329,-199v17,-57,8,-148,9,-221v-124,60,-369,44,-466,118v-39,30,-60,66,-60,115"},"\u00e1":{"d":"460,-1214r182,-288r221,0r-264,288r-139,0xm791,-140v-82,101,-223,169,-376,169v-201,0,-343,-116,-341,-311v2,-210,137,-309,339,-335r245,-31v78,-5,133,-36,130,-123v-4,-126,-107,-184,-246,-183v-150,1,-232,71,-249,205r-166,0v19,-242,175,-353,442,-353v243,0,399,101,399,331r0,588v-2,60,64,69,118,52r0,130v-28,11,-70,21,-104,22v-120,-1,-172,-55,-191,-161xm262,-307v-1,119,69,187,188,187v152,0,295,-83,329,-199v17,-57,8,-148,9,-221v-124,60,-369,44,-466,118v-39,30,-60,66,-60,115"},"\u00e2":{"d":"643,-1502r203,288r-163,0r-135,-192r-135,192r-163,0r203,-288r190,0xm791,-140v-82,101,-223,169,-376,169v-201,0,-343,-116,-341,-311v2,-210,137,-309,339,-335r245,-31v78,-5,133,-36,130,-123v-4,-126,-107,-184,-246,-183v-150,1,-232,71,-249,205r-166,0v19,-242,175,-353,442,-353v243,0,399,101,399,331r0,588v-2,60,64,69,118,52r0,130v-28,11,-70,21,-104,22v-120,-1,-172,-55,-191,-161xm262,-307v-1,119,69,187,188,187v152,0,295,-83,329,-199v17,-57,8,-148,9,-221v-124,60,-369,44,-466,118v-39,30,-60,66,-60,115"},"\u00e3":{"d":"391,-1330v-54,0,-82,40,-92,91r-99,0v29,-139,65,-222,209,-222v107,0,188,75,296,75v54,0,81,-41,92,-91r99,0v-31,137,-66,222,-209,222v-99,0,-194,-75,-296,-75xm791,-140v-82,101,-223,169,-376,169v-201,0,-343,-116,-341,-311v2,-210,137,-309,339,-335r245,-31v78,-5,133,-36,130,-123v-4,-126,-107,-184,-246,-183v-150,1,-232,71,-249,205r-166,0v19,-242,175,-353,442,-353v243,0,399,101,399,331r0,588v-2,60,64,69,118,52r0,130v-28,11,-70,21,-104,22v-120,-1,-172,-55,-191,-161xm262,-307v-1,119,69,187,188,187v152,0,295,-83,329,-199v17,-57,8,-148,9,-221v-124,60,-369,44,-466,118v-39,30,-60,66,-60,115"},"\u00e4":{"d":"289,-1447r186,0r0,210r-186,0r0,-210xm621,-1447r186,0r0,210r-186,0r0,-210xm791,-140v-82,101,-223,169,-376,169v-201,0,-343,-116,-341,-311v2,-210,137,-309,339,-335r245,-31v78,-5,133,-36,130,-123v-4,-126,-107,-184,-246,-183v-150,1,-232,71,-249,205r-166,0v19,-242,175,-353,442,-353v243,0,399,101,399,331r0,588v-2,60,64,69,118,52r0,130v-28,11,-70,21,-104,22v-120,-1,-172,-55,-191,-161xm262,-307v-1,119,69,187,188,187v152,0,295,-83,329,-199v17,-57,8,-148,9,-221v-124,60,-369,44,-466,118v-39,30,-60,66,-60,115"},"\u00e5":{"d":"574,-1172v-103,0,-188,-85,-188,-188v0,-103,85,-188,188,-188v103,0,188,85,188,188v0,103,-85,188,-188,188xm574,-1253v59,0,107,-49,107,-107v0,-59,-49,-107,-107,-107v-59,0,-107,49,-107,107v0,59,49,107,107,107xm791,-140v-82,101,-223,169,-376,169v-201,0,-343,-116,-341,-311v2,-210,137,-309,339,-335r245,-31v78,-5,133,-36,130,-123v-4,-126,-107,-184,-246,-183v-150,1,-232,71,-249,205r-166,0v19,-242,175,-353,442,-353v243,0,399,101,399,331r0,588v-2,60,64,69,118,52r0,130v-28,11,-70,21,-104,22v-120,-1,-172,-55,-191,-161xm262,-307v-1,119,69,187,188,187v152,0,295,-83,329,-199v17,-57,8,-148,9,-221v-124,60,-369,44,-466,118v-39,30,-60,66,-60,115"},"\u00e6":{"d":"126,-749v18,-240,170,-354,433,-353v175,0,292,52,354,162v88,-108,211,-162,363,-162v310,2,485,283,457,630r-782,0v8,210,106,346,315,346v135,0,253,-90,272,-206r178,0v-48,222,-200,358,-459,361v-186,2,-332,-87,-405,-222v-83,126,-252,222,-443,222v-198,0,-337,-117,-335,-310v2,-210,132,-313,331,-338r237,-30v79,-11,150,-25,146,-122v-5,-126,-108,-184,-247,-183v-150,1,-232,71,-249,205r-166,0xm262,-307v-1,120,70,187,190,187v154,0,295,-85,328,-205v16,-60,6,-151,8,-224v-120,69,-369,46,-468,124v-38,30,-58,68,-58,118xm1260,-941v-191,0,-284,132,-302,324r589,0v-9,-193,-97,-324,-287,-324","w":1821},"\u00e7":{"d":"544,278v-1,-80,-109,-96,-179,-63r-34,-38r131,-179r97,0r-93,128v123,-26,235,26,233,147v-3,150,-169,217,-331,176v-36,-9,-72,-19,-107,-32r34,-82v79,32,251,62,249,-57xm535,-126v157,0,244,-112,269,-259r173,0v-33,252,-178,413,-449,414v-300,1,-467,-246,-467,-565v0,-324,177,-566,485,-566v255,0,423,152,431,396r-173,0v-13,-148,-107,-243,-264,-241v-202,2,-291,185,-291,411v0,241,71,410,286,410","w":1024},"\u00e8":{"d":"546,-1214r-268,-288r223,0r180,288r-135,0xm1038,-332v-49,224,-206,360,-469,361v-311,1,-487,-219,-487,-542v0,-338,185,-590,507,-589v314,2,495,281,466,630r-782,0v14,217,97,344,313,346v136,2,255,-90,274,-206r178,0xm581,-941v-181,-1,-293,142,-308,324r596,0v-9,-194,-97,-323,-288,-324"},"\u00e9":{"d":"501,-1214r182,-288r221,0r-264,288r-139,0xm1038,-332v-49,224,-206,360,-469,361v-311,1,-487,-219,-487,-542v0,-338,185,-590,507,-589v314,2,495,281,466,630r-782,0v14,217,97,344,313,346v136,2,255,-90,274,-206r178,0xm581,-941v-181,-1,-293,142,-308,324r596,0v-9,-194,-97,-323,-288,-324"},"\u00ea":{"d":"684,-1502r203,288r-163,0r-135,-192r-135,192r-163,0r203,-288r190,0xm1038,-332v-49,224,-206,360,-469,361v-311,1,-487,-219,-487,-542v0,-338,185,-590,507,-589v314,2,495,281,466,630r-782,0v14,217,97,344,313,346v136,2,255,-90,274,-206r178,0xm581,-941v-181,-1,-293,142,-308,324r596,0v-9,-194,-97,-323,-288,-324"},"\u00eb":{"d":"330,-1447r186,0r0,210r-186,0r0,-210xm662,-1447r186,0r0,210r-186,0r0,-210xm1038,-332v-49,224,-206,360,-469,361v-311,1,-487,-219,-487,-542v0,-338,185,-590,507,-589v314,2,495,281,466,630r-782,0v14,217,97,344,313,346v136,2,255,-90,274,-206r178,0xm581,-941v-181,-1,-293,142,-308,324r596,0v-9,-194,-97,-323,-288,-324"},"\u0131":{"d":"195,0r0,-1070r180,0r0,1070r-180,0","w":569},"\u00ec":{"d":"242,-1214r-268,-288r223,0r180,288r-135,0xm195,0r0,-1070r180,0r0,1070r-180,0","w":569},"\u00ed":{"d":"197,-1214r182,-288r221,0r-264,288r-139,0xm195,0r0,-1070r180,0r0,1070r-180,0","w":569},"\u00ee":{"d":"382,-1502r203,288r-163,0r-135,-192r-135,192r-163,0r203,-288r190,0xm197,0r0,-1070r180,0r0,1070r-180,0","w":569},"\u00ef":{"d":"27,-1447r186,0r0,210r-186,0r0,-210xm359,-1447r186,0r0,210r-186,0r0,-210xm196,0r0,-1070r180,0r0,1070r-180,0","w":569},"\u00f0":{"d":"1069,-606v0,374,-153,631,-499,635v-303,3,-498,-239,-498,-552v0,-308,177,-554,468,-553v113,0,211,49,294,147v-58,-134,-133,-229,-241,-324r-257,123r-84,-80r245,-117v-52,-37,-110,-74,-174,-109r147,-78v65,35,124,73,178,115r230,-110r91,77r-229,109v177,157,329,428,329,717xm570,-921v-204,0,-310,178,-310,398v0,221,106,397,310,397v204,0,311,-177,311,-397v0,-221,-107,-398,-311,-398"},"\u00f1":{"d":"412,-1330v-54,0,-82,40,-92,91r-99,0v29,-139,65,-222,209,-222v107,0,188,75,296,75v54,0,81,-41,92,-91r99,0v-31,137,-66,222,-209,222v-99,0,-194,-75,-296,-75xm595,-938v-187,0,-282,162,-282,365r0,573r-180,0r0,-1070r171,0r0,158v69,-107,193,-190,333,-190v235,0,369,134,369,369r0,733r-180,0r0,-672v-1,-180,-59,-266,-231,-266"},"\u00f2":{"d":"526,-1214r-268,-288r223,0r180,288r-135,0xm569,29v-305,0,-497,-248,-497,-565v0,-319,192,-566,497,-566v307,0,498,247,498,566v0,319,-191,565,-498,565xm569,-126v206,0,310,-185,310,-410v0,-226,-104,-411,-310,-411v-206,0,-309,186,-309,411v0,226,102,410,309,410"},"\u00f3":{"d":"481,-1214r182,-288r221,0r-264,288r-139,0xm569,29v-305,0,-497,-248,-497,-565v0,-319,192,-566,497,-566v307,0,498,247,498,566v0,319,-191,565,-498,565xm569,-126v206,0,310,-185,310,-410v0,-226,-104,-411,-310,-411v-206,0,-309,186,-309,411v0,226,102,410,309,410"},"\u00f4":{"d":"664,-1502r203,288r-163,0r-135,-192r-135,192r-163,0r203,-288r190,0xm569,29v-305,0,-497,-248,-497,-565v0,-319,192,-566,497,-566v307,0,498,247,498,566v0,319,-191,565,-498,565xm569,-126v206,0,310,-185,310,-410v0,-226,-104,-411,-310,-411v-206,0,-309,186,-309,411v0,226,102,410,309,410"},"\u00f5":{"d":"412,-1330v-54,0,-82,40,-92,91r-99,0v29,-139,65,-222,209,-222v107,0,188,75,296,75v54,0,81,-41,92,-91r99,0v-31,137,-66,222,-209,222v-99,0,-194,-75,-296,-75xm569,29v-305,0,-497,-248,-497,-565v0,-319,192,-566,497,-566v307,0,498,247,498,566v0,319,-191,565,-498,565xm569,-126v206,0,310,-185,310,-410v0,-226,-104,-411,-310,-411v-206,0,-309,186,-309,411v0,226,102,410,309,410"},"\u00f6":{"d":"310,-1447r186,0r0,210r-186,0r0,-210xm642,-1447r186,0r0,210r-186,0r0,-210xm569,29v-305,0,-497,-248,-497,-565v0,-319,192,-566,497,-566v307,0,498,247,498,566v0,319,-191,565,-498,565xm569,-126v206,0,310,-185,310,-410v0,-226,-104,-411,-310,-411v-206,0,-309,186,-309,411v0,226,102,410,309,410"},"\u00f7":{"d":"459,-97v0,-76,63,-140,139,-140v76,0,139,64,139,140v0,75,-64,139,-139,139v-75,0,-139,-64,-139,-139xm80,-591r1036,0r0,151r-1036,0r0,-151xm459,-933v0,-76,63,-140,139,-140v76,0,139,64,139,140v0,75,-64,139,-139,139v-75,0,-139,-64,-139,-139","w":1196},"\u00f8":{"d":"578,-126v206,0,310,-185,310,-410v0,-94,-16,-173,-47,-237r-481,546v55,67,127,101,218,101xm1076,-536v0,319,-191,565,-498,565v-133,0,-244,-42,-332,-126r-126,143r-63,-51r134,-152v-72,-101,-108,-228,-110,-379v-5,-319,192,-566,497,-566v134,0,245,42,334,127r124,-141r63,51r-134,152v74,99,111,225,111,377xm578,-947v-206,2,-309,186,-309,411v0,93,15,173,46,239r482,-548v-55,-68,-128,-102,-219,-102","w":1251},"\u00f9":{"d":"527,-1214r-268,-288r223,0r180,288r-135,0xm503,29v-243,0,-364,-121,-364,-364r0,-735r180,0r0,690v1,173,56,254,221,254v189,0,282,-167,282,-373r0,-571r180,0r0,1070r-171,0r0,-163v-65,109,-191,192,-328,192"},"\u00fa":{"d":"482,-1214r182,-288r221,0r-264,288r-139,0xm503,29v-243,0,-364,-121,-364,-364r0,-735r180,0r0,690v1,173,56,254,221,254v189,0,282,-167,282,-373r0,-571r180,0r0,1070r-171,0r0,-163v-65,109,-191,192,-328,192"},"\u00fb":{"d":"665,-1502r203,288r-163,0r-135,-192r-135,192r-163,0r203,-288r190,0xm503,29v-243,0,-364,-121,-364,-364r0,-735r180,0r0,690v1,173,56,254,221,254v189,0,282,-167,282,-373r0,-571r180,0r0,1070r-171,0r0,-163v-65,109,-191,192,-328,192"},"\u00fc":{"d":"311,-1447r186,0r0,210r-186,0r0,-210xm643,-1447r186,0r0,210r-186,0r0,-210xm503,29v-243,0,-364,-121,-364,-364r0,-735r180,0r0,690v1,173,56,254,221,254v189,0,282,-167,282,-373r0,-571r180,0r0,1070r-171,0r0,-163v-65,109,-191,192,-328,192"},"\u00fd":{"d":"424,-1214r182,-288r221,0r-264,288r-139,0xm228,-1070r286,885r290,-885r197,0r-407,1105v-63,165,-120,271,-168,323v-59,65,-193,93,-307,65r0,-167v27,10,62,15,103,16v41,0,75,-16,102,-50v26,-33,70,-109,96,-204r-397,-1088r205,0","w":1024},"\u00fe":{"d":"593,29v-124,1,-225,-52,-294,-147r0,541r-180,0r0,-1893r180,0r0,537v78,-113,180,-169,305,-169v292,-1,455,228,455,535v0,340,-151,593,-466,596xm299,-484v0,211,88,357,285,357v213,0,288,-178,287,-417v-1,-242,-67,-394,-286,-394v-99,0,-171,36,-217,109v-46,73,-69,188,-69,345"},"\u00ff":{"d":"253,-1447r186,0r0,210r-186,0r0,-210xm585,-1447r186,0r0,210r-186,0r0,-210xm228,-1070r286,885r290,-885r197,0r-407,1105v-63,165,-120,271,-168,323v-59,65,-193,93,-307,65r0,-167v27,10,62,15,103,16v41,0,75,-16,102,-50v26,-33,70,-109,96,-204r-397,-1088r205,0","w":1024},"\u0100":{"d":"385,-1739r624,0r0,125r-624,0r0,-125xm584,-1470r227,0r528,1470r-214,0r-149,-426r-588,0r-154,426r-205,0xm688,-1254r-236,652r463,0","w":1366},"\u0101":{"d":"236,-1339r624,0r0,125r-624,0r0,-125xm791,-140v-82,101,-223,169,-376,169v-201,0,-343,-116,-341,-311v2,-210,137,-309,339,-335r245,-31v78,-5,133,-36,130,-123v-4,-126,-107,-184,-246,-183v-150,1,-232,71,-249,205r-166,0v19,-242,175,-353,442,-353v243,0,399,101,399,331r0,588v-2,60,64,69,118,52r0,130v-28,11,-70,21,-104,22v-120,-1,-172,-55,-191,-161xm262,-307v-1,119,69,187,188,187v152,0,295,-83,329,-199v17,-57,8,-148,9,-221v-124,60,-369,44,-466,118v-39,30,-60,66,-60,115"},"\u0102":{"d":"1013,-1896v-13,175,-128,279,-316,279v-188,0,-303,-104,-316,-279r97,0v26,105,93,165,219,165v139,0,188,-49,219,-165r97,0xm584,-1470r227,0r528,1470r-214,0r-149,-426r-588,0r-154,426r-205,0xm688,-1254r-236,652r463,0","w":1366},"\u0103":{"d":"864,-1496v-13,175,-128,279,-316,279v-188,0,-303,-104,-316,-279r97,0v26,105,93,165,219,165v139,0,188,-49,219,-165r97,0xm791,-140v-82,101,-223,169,-376,169v-201,0,-343,-116,-341,-311v2,-210,137,-309,339,-335r245,-31v78,-5,133,-36,130,-123v-4,-126,-107,-184,-246,-183v-150,1,-232,71,-249,205r-166,0v19,-242,175,-353,442,-353v243,0,399,101,399,331r0,588v-2,60,64,69,118,52r0,130v-28,11,-70,21,-104,22v-120,-1,-172,-55,-191,-161xm262,-307v-1,119,69,187,188,187v152,0,295,-83,329,-199v17,-57,8,-148,9,-221v-124,60,-369,44,-466,118v-39,30,-60,66,-60,115"},"\u0104":{"d":"1141,460v-132,0,-242,-67,-242,-189v0,-139,104,-244,226,-272r136,0r0,8v-114,63,-205,108,-205,248v0,76,38,109,115,109v49,0,97,-14,131,-32r35,82v-46,26,-127,46,-196,46xm584,-1470r227,0r528,1470r-214,0r-149,-426r-588,0r-154,426r-205,0xm688,-1254r-236,652r463,0","w":1366},"\u0105":{"d":"885,460v-132,0,-242,-67,-242,-189v0,-139,104,-244,226,-272r136,0r0,8v-114,63,-205,108,-205,248v0,76,38,109,115,109v49,0,97,-14,131,-32r35,82v-46,26,-127,46,-196,46xm791,-140v-82,101,-223,169,-376,169v-201,0,-343,-116,-341,-311v2,-210,137,-309,339,-335r245,-31v78,-5,133,-36,130,-123v-4,-126,-107,-184,-246,-183v-150,1,-232,71,-249,205r-166,0v19,-242,175,-353,442,-353v243,0,399,101,399,331r0,588v-2,60,64,69,118,52r0,130v-28,11,-70,21,-104,22v-120,-1,-172,-55,-191,-161xm262,-307v-1,119,69,187,188,187v152,0,295,-83,329,-199v17,-57,8,-148,9,-221v-124,60,-369,44,-466,118v-39,30,-60,66,-60,115"},"\u0106":{"d":"684,-1614r182,-288r221,0r-264,288r-139,0xm769,-136v252,0,392,-173,434,-405r192,0v-42,339,-274,580,-640,581v-422,1,-665,-331,-665,-774v0,-450,258,-776,691,-776v332,0,563,187,601,481r-192,0v-35,-192,-186,-306,-412,-305v-313,0,-483,264,-483,600v0,359,140,598,474,598","w":1479},"\u0107":{"d":"458,-1214r182,-288r221,0r-264,288r-139,0xm535,-126v157,0,244,-112,269,-259r173,0v-33,252,-178,413,-449,414v-300,1,-467,-246,-467,-565v0,-324,177,-566,485,-566v255,0,423,152,431,396r-173,0v-13,-148,-107,-243,-264,-241v-202,2,-291,185,-291,411v0,241,71,410,286,410","w":1024},"\u010c":{"d":"691,-1614r-203,-288r163,0r135,192r135,-192r163,0r-203,288r-190,0xm769,-136v252,0,392,-173,434,-405r192,0v-42,339,-274,580,-640,581v-422,1,-665,-331,-665,-774v0,-450,258,-776,691,-776v332,0,563,187,601,481r-192,0v-35,-192,-186,-306,-412,-305v-313,0,-483,264,-483,600v0,359,140,598,474,598","w":1479},"\u010d":{"d":"468,-1214r-203,-288r163,0r135,192r135,-192r163,0r-203,288r-190,0xm535,-126v157,0,244,-112,269,-259r173,0v-33,252,-178,413,-449,414v-300,1,-467,-246,-467,-565v0,-324,177,-566,485,-566v255,0,423,152,431,396r-173,0v-13,-148,-107,-243,-264,-241v-202,2,-291,185,-291,411v0,241,71,410,286,410","w":1024},"\u010e":{"d":"562,-1614r-203,-288r163,0r135,192r135,-192r163,0r-203,288r-190,0xm1381,-734v0,420,-227,734,-627,734r-588,0r0,-1470r604,0v393,-1,611,320,611,736xm1176,-734v0,-328,-129,-566,-430,-566r-381,0r0,1130r364,0v307,-3,447,-233,447,-564","w":1479},"\u010f":{"d":"1118,-1272r0,-198r188,0v0,128,4,326,-38,384v-27,37,-78,69,-159,88r0,-84v82,-18,96,-82,100,-190r-91,0xm71,-565v0,-297,166,-537,444,-537v139,0,253,71,326,187r0,-555r180,0r0,1470r-167,0r0,-146v-66,106,-181,177,-314,175v-307,-4,-469,-262,-469,-594xm550,-125v185,3,291,-161,291,-359v0,-146,-25,-259,-75,-338v-50,-79,-123,-118,-216,-118v-227,0,-290,151,-291,403v-1,234,81,409,291,412","w":1330},"\u0110":{"d":"1381,-734v0,421,-230,734,-631,734r-592,0r0,-666r-158,0r0,-137r158,0r0,-667r608,0v395,-1,615,319,615,736xm1176,-734v0,-329,-132,-566,-435,-566r-384,0r0,497r401,0r0,137r-401,0r0,496r368,0v309,-2,451,-232,451,-564","w":1479},"\u0111":{"d":"842,-126v-71,98,-176,156,-301,155v-307,-3,-469,-262,-469,-594v0,-297,166,-537,444,-537v139,0,253,71,326,187r0,-317r-352,0r0,-129r352,0r0,-109r180,0r0,109r161,0r0,129r-161,0r0,1232r-180,0r0,-126xm551,-125v185,3,291,-161,291,-359v0,-146,-26,-259,-76,-338v-50,-79,-122,-118,-215,-118v-227,0,-290,151,-291,403v-1,234,81,409,291,412"},"\u0112":{"d":"424,-1739r624,0r0,125r-624,0r0,-125xm176,0r0,-1470r1075,0r0,176r-876,0r0,449r800,0r0,176r-800,0r0,493r887,0r0,176r-1086,0","w":1366},"\u0113":{"d":"277,-1339r624,0r0,125r-624,0r0,-125xm1038,-332v-49,224,-206,360,-469,361v-311,1,-487,-219,-487,-542v0,-338,185,-590,507,-589v314,2,495,281,466,630r-782,0v14,217,97,344,313,346v136,2,255,-90,274,-206r178,0xm581,-941v-181,-1,-293,142,-308,324r596,0v-9,-194,-97,-323,-288,-324"},"\u0116":{"d":"643,-1846r186,0r0,209r-186,0r0,-209xm176,0r0,-1470r1075,0r0,176r-876,0r0,449r800,0r0,176r-800,0r0,493r887,0r0,176r-1086,0","w":1366},"\u0117":{"d":"496,-1446r186,0r0,209r-186,0r0,-209xm1038,-332v-49,224,-206,360,-469,361v-311,1,-487,-219,-487,-542v0,-338,185,-590,507,-589v314,2,495,281,466,630r-782,0v14,217,97,344,313,346v136,2,255,-90,274,-206r178,0xm581,-941v-181,-1,-293,142,-308,324r596,0v-9,-194,-97,-323,-288,-324"},"\u0118":{"d":"1061,460v-132,0,-242,-67,-242,-189v0,-139,104,-244,226,-272r136,0r0,8v-114,63,-205,108,-205,248v0,76,38,109,115,109v49,0,97,-14,131,-32r35,82v-46,26,-127,46,-196,46xm176,0r0,-1470r1075,0r0,176r-876,0r0,449r800,0r0,176r-800,0r0,493r887,0r0,176r-1086,0","w":1366},"\u0119":{"d":"629,460v-132,0,-242,-67,-242,-189v0,-139,104,-244,226,-272r136,0r0,8v-114,63,-205,108,-205,248v0,76,38,109,115,109v49,0,97,-14,131,-32r35,82v-46,26,-127,46,-196,46xm1038,-332v-49,224,-206,360,-469,361v-311,1,-487,-219,-487,-542v0,-338,185,-590,507,-589v314,2,495,281,466,630r-782,0v14,217,97,344,313,346v136,2,255,-90,274,-206r178,0xm581,-941v-181,-1,-293,142,-308,324r596,0v-9,-194,-97,-323,-288,-324"},"\u011a":{"d":"646,-1614r-203,-288r163,0r135,192r135,-192r163,0r-203,288r-190,0xm176,0r0,-1470r1075,0r0,176r-876,0r0,449r800,0r0,176r-800,0r0,493r887,0r0,176r-1086,0","w":1366},"\u011b":{"d":"511,-1214r-203,-288r163,0r135,192r135,-192r163,0r-203,288r-190,0xm1038,-332v-49,224,-206,360,-469,361v-311,1,-487,-219,-487,-542v0,-338,185,-590,507,-589v314,2,495,281,466,630r-782,0v14,217,97,344,313,346v136,2,255,-90,274,-206r178,0xm581,-941v-181,-1,-293,142,-308,324r596,0v-9,-194,-97,-323,-288,-324"},"\u011e":{"d":"1112,-1896v-13,175,-128,279,-316,279v-188,0,-303,-104,-316,-279r97,0v26,105,93,165,219,165v139,0,188,-49,219,-165r97,0xm1269,-186v-118,145,-285,226,-487,226v-419,0,-684,-338,-684,-774v0,-441,273,-776,698,-776v315,0,585,205,618,481r-192,0v-37,-197,-201,-306,-438,-305v-305,1,-481,275,-481,603v0,355,158,597,491,601v175,2,325,-88,407,-221v33,-55,60,-169,57,-260r-461,0r0,-168r644,0r0,778r-124,0","w":1593},"\u011f":{"d":"850,-1496v-13,175,-128,279,-316,279v-188,0,-303,-104,-316,-279r97,0v26,105,93,165,219,165v139,0,188,-49,219,-165r97,0xm294,124v19,111,103,179,231,179v232,-1,326,-165,317,-417v-74,94,-171,143,-291,143v-308,-1,-469,-262,-469,-594v0,-298,170,-537,452,-537v136,0,247,70,319,186r0,-154r169,0r0,991v-2,352,-149,529,-494,531v-242,1,-390,-115,-418,-328r184,0xm560,-127v185,3,291,-160,291,-357v0,-151,-25,-264,-73,-340v-48,-76,-121,-114,-218,-114v-227,0,-289,150,-290,401v-2,233,82,407,290,410"},"\u0122":{"d":"689,342r0,-198r188,0v0,128,5,326,-37,384v-27,37,-79,69,-160,88r0,-84v82,-18,96,-82,100,-190r-91,0xm1269,-186v-118,145,-285,226,-487,226v-419,0,-684,-338,-684,-774v0,-441,273,-776,698,-776v315,0,585,205,618,481r-192,0v-37,-197,-201,-306,-438,-305v-305,1,-481,275,-481,603v0,355,158,597,491,601v175,2,325,-88,407,-221v33,-55,60,-169,57,-260r-461,0r0,-168r644,0r0,778r-124,0","w":1593},"\u0123":{"d":"623,-1412r0,198r-188,0v0,-128,-5,-326,37,-384v27,-37,79,-69,160,-88r0,84v-82,18,-96,82,-100,190r91,0xm294,124v19,111,103,179,231,179v232,-1,326,-165,317,-417v-74,94,-171,143,-291,143v-308,-1,-469,-262,-469,-594v0,-298,170,-537,452,-537v136,0,247,70,319,186r0,-154r169,0r0,991v-2,352,-149,529,-494,531v-242,1,-390,-115,-418,-328r184,0xm560,-127v185,3,291,-160,291,-357v0,-151,-25,-264,-73,-340v-48,-76,-121,-114,-218,-114v-227,0,-289,150,-290,401v-2,233,82,407,290,410"},"\u012a":{"d":"-24,-1739r624,0r0,125r-624,0r0,-125xm189,0r0,-1470r199,0r0,1470r-199,0","w":569},"\u012b":{"d":"-36,-1339r624,0r0,125r-624,0r0,-125xm186,0r0,-1070r180,0r0,1070r-180,0","w":569},"\u012e":{"d":"263,460v-132,0,-242,-67,-242,-189v0,-139,104,-244,226,-272r136,0r0,8v-114,63,-205,108,-205,248v0,76,38,109,115,109v49,0,97,-14,131,-32r35,82v-46,26,-127,46,-196,46xm192,0r0,-1470r199,0r0,1470r-199,0","w":569},"\u012f":{"d":"253,460v-132,0,-242,-67,-242,-189v0,-139,104,-244,226,-272r136,0r0,8v-114,63,-205,108,-205,248v0,76,38,109,115,109v49,0,97,-14,131,-32r35,82v-46,26,-127,46,-196,46xm206,0r0,-1070r180,0r0,1070r-180,0xm204,-1470r184,0r0,204r-184,0r0,-204","w":569},"\u0130":{"d":"192,-1846r186,0r0,209r-186,0r0,-209xm186,0r0,-1470r199,0r0,1470r-199,0","w":569},"\u0136":{"d":"634,342r0,-198r188,0v0,128,4,326,-38,384v-27,37,-78,69,-159,88r0,-84v82,-18,96,-82,100,-190r-91,0xm156,0r0,-1470r199,0r0,714r716,-714r275,0r-623,601r635,869r-259,0r-522,-727r-222,214r0,513r-199,0","w":1366},"\u0137":{"d":"460,342r0,-198r188,0v0,128,4,326,-38,384v-27,37,-78,69,-159,88r0,-84v82,-18,96,-82,100,-190r-91,0xm137,0r0,-1470r180,0r0,847r452,-447r229,0r-407,397r434,673r-235,0r-332,-544r-141,138r0,406r-180,0","w":1024},"\u0139":{"d":"158,-1614r182,-288r221,0r-264,288r-139,0xm156,0r0,-1470r199,0r0,1294r745,0r0,176r-944,0"},"\u013a":{"d":"137,-1614r182,-288r221,0r-264,288r-139,0xm144,0r0,-1470r180,0r0,1470r-180,0","w":455},"\u013b":{"d":"535,342r0,-198r188,0v0,128,5,326,-37,384v-27,37,-79,69,-160,88r0,-84v82,-18,96,-82,100,-190r-91,0xm156,0r0,-1470r199,0r0,1294r745,0r0,176r-944,0"},"\u013c":{"d":"146,342r0,-198r188,0v0,128,4,326,-38,384v-27,37,-78,69,-159,88r0,-84v82,-18,96,-82,100,-190r-91,0xm149,0r0,-1470r180,0r0,1470r-180,0","w":455},"\u013d":{"d":"643,-1272r0,-198r188,0v0,128,5,326,-37,384v-27,37,-79,69,-160,88r0,-84v82,-18,96,-82,100,-190r-91,0xm156,0r0,-1470r199,0r0,1294r745,0r0,176r-944,0"},"\u013e":{"d":"482,-1272r0,-198r188,0v0,128,4,326,-38,384v-27,37,-78,69,-159,88r0,-84v82,-18,96,-82,100,-190r-91,0xm205,0r0,-1470r180,0r0,1470r-180,0","w":682},"\u0141":{"d":"193,0r0,-702r-193,107r0,-118r193,-107r0,-650r199,0r0,540r243,-134r0,118r-243,134r0,636r745,0r0,176r-944,0"},"\u0142":{"d":"139,-693r-176,99r0,-117r176,-99r0,-660r180,0r0,560r176,-99r0,117r-176,99r0,793r-180,0r0,-693","w":455},"\u0143":{"d":"642,-1614r182,-288r221,0r-264,288r-139,0xm348,0r-192,0r0,-1470r239,0r736,1195r0,-1195r192,0r0,1470r-218,0r-757,-1199r0,1199","w":1479},"\u0144":{"d":"481,-1214r182,-288r221,0r-264,288r-139,0xm595,-938v-187,0,-282,162,-282,365r0,573r-180,0r0,-1070r171,0r0,158v69,-107,193,-190,333,-190v235,0,369,134,369,369r0,733r-180,0r0,-672v-1,-180,-59,-266,-231,-266"},"\u0145":{"d":"646,342r0,-198r188,0v0,128,4,326,-38,384v-27,37,-78,69,-159,88r0,-84v82,-18,96,-82,100,-190r-91,0xm348,0r-192,0r0,-1470r239,0r736,1195r0,-1195r192,0r0,1470r-218,0r-757,-1199r0,1199","w":1479},"\u0146":{"d":"476,342r0,-198r188,0v0,128,4,326,-38,384v-27,37,-78,69,-159,88r0,-84v82,-18,96,-82,100,-190r-91,0xm595,-938v-187,0,-282,162,-282,365r0,573r-180,0r0,-1070r171,0r0,158v69,-107,193,-190,333,-190v235,0,369,134,369,369r0,733r-180,0r0,-672v-1,-180,-59,-266,-231,-266"},"\u0147":{"d":"649,-1614r-203,-288r163,0r135,192r135,-192r163,0r-203,288r-190,0xm348,0r-192,0r0,-1470r239,0r736,1195r0,-1195r192,0r0,1470r-218,0r-757,-1199r0,1199","w":1479},"\u0148":{"d":"491,-1214r-203,-288r163,0r135,192r135,-192r163,0r-203,288r-190,0xm595,-938v-187,0,-282,162,-282,365r0,573r-180,0r0,-1070r171,0r0,158v69,-107,193,-190,333,-190v235,0,369,134,369,369r0,733r-180,0r0,-672v-1,-180,-59,-266,-231,-266"},"\u014c":{"d":"484,-1739r624,0r0,125r-624,0r0,-125xm796,40v-432,0,-716,-331,-716,-774v0,-444,284,-776,716,-776v434,0,717,331,717,776v0,444,-283,774,-717,774xm796,-136v318,0,512,-264,512,-598v0,-335,-193,-600,-512,-600v-317,0,-511,266,-511,600v0,334,194,598,511,598","w":1593},"\u014d":{"d":"257,-1339r624,0r0,125r-624,0r0,-125xm569,29v-305,0,-497,-248,-497,-565v0,-319,192,-566,497,-566v307,0,498,247,498,566v0,319,-191,565,-498,565xm569,-126v206,0,310,-185,310,-410v0,-226,-104,-411,-310,-411v-206,0,-309,186,-309,411v0,226,102,410,309,410"},"\u0150":{"d":"518,-1617r182,-288r221,0r-264,288r-139,0xm885,-1617r182,-288r221,0r-264,288r-139,0xm796,40v-432,0,-716,-331,-716,-774v0,-444,284,-776,716,-776v434,0,717,331,717,776v0,444,-283,774,-717,774xm796,-136v318,0,512,-264,512,-598v0,-335,-193,-600,-512,-600v-317,0,-511,266,-511,600v0,334,194,598,511,598","w":1593},"\u0151":{"d":"283,-1214r182,-288r221,0r-264,288r-139,0xm650,-1214r182,-288r221,0r-264,288r-139,0xm569,29v-305,0,-497,-248,-497,-565v0,-319,192,-566,497,-566v307,0,498,247,498,566v0,319,-191,565,-498,565xm569,-126v206,0,310,-185,310,-410v0,-226,-104,-411,-310,-411v-206,0,-309,186,-309,411v0,226,102,410,309,410"},"\u0152":{"d":"74,-736v0,-433,215,-771,619,-773v161,-1,284,54,371,163r0,-124r893,0r0,176r-704,0r0,449r686,0r0,176r-686,0r0,493r723,0r0,176r-912,0r0,-131v-92,111,-223,167,-394,167v-393,0,-596,-345,-596,-772xm279,-700v0,329,130,568,430,568v123,0,223,-48,300,-143v29,-35,56,-118,55,-181r0,-553v1,-62,-23,-148,-50,-183v-73,-99,-175,-149,-305,-149v-137,0,-242,55,-317,167v-75,112,-113,270,-113,474","w":2048},"\u0153":{"d":"72,-536v0,-318,190,-566,494,-566v175,0,322,86,402,215v83,-130,230,-217,411,-215v314,4,495,281,466,630r-782,0v14,217,97,344,313,346v136,2,255,-90,274,-206r178,0v-49,224,-206,359,-469,361v-179,1,-321,-76,-400,-200v-84,120,-225,200,-393,200v-304,0,-494,-248,-494,-565xm872,-536v0,-225,-101,-411,-306,-411v-204,0,-306,187,-306,411v0,225,101,410,306,410v204,0,306,-186,306,-410xm1371,-941v-181,-1,-293,142,-308,324r596,0v-9,-194,-97,-323,-288,-324","w":1933},"\u0154":{"d":"606,-1614r182,-288r221,0r-264,288r-139,0xm1342,-1071v2,162,-78,287,-196,350v107,45,166,140,172,275v5,116,-8,275,25,363v8,20,29,36,58,50r0,32r-245,0v-23,-87,-28,-259,-32,-379v-7,-185,-81,-254,-273,-254r-472,0r0,634r-199,0r0,-1470r684,0v293,-1,474,122,478,399xm1137,-1058v0,-179,-95,-245,-281,-245r-477,0r0,497r492,0v182,-1,266,-73,266,-252","w":1479},"\u0155":{"d":"331,-1214r182,-288r221,0r-264,288r-139,0xm680,-909v-225,-15,-342,116,-342,336r0,573r-180,0r0,-1070r171,0r0,183v65,-124,190,-250,351,-206r0,184","w":682},"\u0156":{"d":"664,342r0,-198r188,0v0,128,4,326,-38,384v-27,37,-78,69,-159,88r0,-84v82,-18,96,-82,100,-190r-91,0xm1342,-1071v2,162,-78,287,-196,350v107,45,166,140,172,275v5,116,-8,275,25,363v8,20,29,36,58,50r0,32r-245,0v-23,-87,-28,-259,-32,-379v-7,-185,-81,-254,-273,-254r-472,0r0,634r-199,0r0,-1470r684,0v293,-1,474,122,478,399xm1137,-1058v0,-179,-95,-245,-281,-245r-477,0r0,497r492,0v182,-1,266,-73,266,-252","w":1479},"\u0157":{"d":"167,342r0,-198r188,0v0,128,5,326,-37,384v-27,37,-79,69,-160,88r0,-84v82,-18,96,-82,100,-190r-91,0xm692,-909v-225,-15,-342,116,-342,336r0,573r-180,0r0,-1070r171,0r0,183v65,-124,190,-250,351,-206r0,184","w":682},"\u0158":{"d":"613,-1614r-203,-288r163,0r135,192r135,-192r163,0r-203,288r-190,0xm1342,-1071v2,162,-78,287,-196,350v107,45,166,140,172,275v5,116,-8,275,25,363v8,20,29,36,58,50r0,32r-245,0v-23,-87,-28,-259,-32,-379v-7,-185,-81,-254,-273,-254r-472,0r0,634r-199,0r0,-1470r684,0v293,-1,474,122,478,399xm1137,-1058v0,-179,-95,-245,-281,-245r-477,0r0,497r492,0v182,-1,266,-73,266,-252","w":1479},"\u0159":{"d":"361,-1214r-203,-288r163,0r135,192r135,-192r163,0r-203,288r-190,0xm700,-909v-225,-15,-342,116,-342,336r0,573r-180,0r0,-1070r171,0r0,183v65,-124,190,-250,351,-206r0,184","w":682},"\u015a":{"d":"586,-1614r182,-288r221,0r-264,288r-139,0xm683,-1510v318,0,540,169,552,466r-183,0v-17,-189,-158,-290,-369,-290v-203,0,-342,70,-342,255v0,57,19,99,58,127v82,60,346,107,489,144v244,62,382,144,382,414v0,288,-249,434,-562,434v-357,0,-611,-168,-608,-510r183,0v8,226,179,334,425,334v213,0,373,-61,373,-248v0,-71,-20,-124,-63,-157v-159,-121,-645,-136,-783,-284v-53,-57,-83,-130,-83,-227v-1,-292,225,-458,531,-458","w":1366},"\u015b":{"d":"412,-1214r182,-288r221,0r-264,288r-139,0xm500,-1102v238,0,406,122,415,342r-169,0v-11,-123,-108,-187,-246,-187v-131,0,-229,38,-229,153v0,38,14,67,41,86v60,42,247,75,349,102v179,47,289,97,289,290v0,225,-185,347,-424,345v-292,-3,-441,-104,-460,-371r173,0v20,158,106,215,287,216v145,1,243,-49,246,-180v0,-37,-13,-67,-41,-85v-126,-79,-470,-94,-566,-203v-40,-45,-64,-103,-64,-180v0,-213,172,-328,399,-328","w":1024},"\u015e":{"d":"724,278v-1,-80,-109,-96,-179,-63r-34,-38r131,-179r97,0r-93,128v123,-26,235,26,233,147v-3,150,-169,217,-331,176v-36,-9,-72,-19,-107,-32r34,-82v79,32,251,62,249,-57xm683,-1510v318,0,540,169,552,466r-183,0v-17,-189,-158,-290,-369,-290v-203,0,-342,70,-342,255v0,57,19,99,58,127v82,60,346,107,489,144v244,62,382,144,382,414v0,288,-249,434,-562,434v-357,0,-611,-168,-608,-510r183,0v8,226,179,334,425,334v213,0,373,-61,373,-248v0,-71,-20,-124,-63,-157v-159,-121,-645,-136,-783,-284v-53,-57,-83,-130,-83,-227v-1,-292,225,-458,531,-458","w":1366},"\u015f":{"d":"542,278v-1,-80,-109,-96,-179,-63r-34,-38r131,-179r97,0r-93,128v123,-26,235,26,233,147v-3,150,-169,217,-331,176v-36,-9,-72,-19,-107,-32r34,-82v79,32,251,62,249,-57xm500,-1102v238,0,406,122,415,342r-169,0v-11,-123,-108,-187,-246,-187v-131,0,-229,38,-229,153v0,38,14,67,41,86v60,42,247,75,349,102v179,47,289,97,289,290v0,225,-185,347,-424,345v-292,-3,-441,-104,-460,-371r173,0v20,158,106,215,287,216v145,1,243,-49,246,-180v0,-37,-13,-67,-41,-85v-126,-79,-470,-94,-566,-203v-40,-45,-64,-103,-64,-180v0,-213,172,-328,399,-328","w":1024},"\u0160":{"d":"593,-1614r-203,-288r163,0r135,192r135,-192r163,0r-203,288r-190,0xm683,-1510v318,0,540,169,552,466r-183,0v-17,-189,-158,-290,-369,-290v-203,0,-342,70,-342,255v0,57,19,99,58,127v82,60,346,107,489,144v244,62,382,144,382,414v0,288,-249,434,-562,434v-357,0,-611,-168,-608,-510r183,0v8,226,179,334,425,334v213,0,373,-61,373,-248v0,-71,-20,-124,-63,-157v-159,-121,-645,-136,-783,-284v-53,-57,-83,-130,-83,-227v-1,-292,225,-458,531,-458","w":1366},"\u0161":{"d":"422,-1214r-203,-288r163,0r135,192r135,-192r163,0r-203,288r-190,0xm500,-1102v238,0,406,122,415,342r-169,0v-11,-123,-108,-187,-246,-187v-131,0,-229,38,-229,153v0,38,14,67,41,86v60,42,247,75,349,102v179,47,289,97,289,290v0,225,-185,347,-424,345v-292,-3,-441,-104,-460,-371r173,0v20,158,106,215,287,216v145,1,243,-49,246,-180v0,-37,-13,-67,-41,-85v-126,-79,-470,-94,-566,-203v-40,-45,-64,-103,-64,-180v0,-213,172,-328,399,-328","w":1024},"\u0162":{"d":"533,340r0,-198r188,0v0,128,5,326,-37,384v-27,37,-79,69,-160,88r0,-84v82,-18,96,-82,100,-190r-91,0xm526,0r0,-1294r-497,0r0,-176r1193,0r0,176r-497,0r0,1294r-199,0","w":1251},"\u0163":{"d":"276,340r0,-198r188,0v0,128,4,326,-38,384v-27,37,-78,69,-159,88r0,-84v82,-18,96,-82,100,-190r-91,0xm357,-218v1,75,85,83,169,78r0,139v-61,9,-106,14,-134,14v-163,-2,-215,-64,-215,-231r0,-705r-148,0r0,-147r148,0r0,-300r180,0r0,300r169,0r0,147r-169,0r0,705","w":569},"\u0164":{"d":"535,-1614r-203,-288r163,0r135,192r135,-192r163,0r-203,288r-190,0xm526,0r0,-1294r-497,0r0,-176r1193,0r0,176r-497,0r0,1294r-199,0","w":1251},"\u0165":{"d":"555,-1274r0,-198r188,0v0,128,5,326,-37,384v-27,37,-79,69,-160,88r0,-84v82,-18,96,-82,100,-190r-91,0xm334,-218v1,75,85,83,169,78r0,139v-61,9,-106,14,-134,14v-163,-2,-215,-64,-215,-231r0,-705r-148,0r0,-147r148,0r0,-300r180,0r0,300r169,0r0,147r-169,0r0,705","w":768},"\u016a":{"d":"428,-1739r624,0r0,125r-624,0r0,-125xm741,-136v256,0,379,-155,379,-418r0,-916r199,0r0,931v3,360,-218,579,-578,579v-377,0,-579,-202,-579,-579r0,-931r199,0r0,916v-1,264,124,418,380,418","w":1479},"\u016b":{"d":"258,-1339r624,0r0,125r-624,0r0,-125xm503,29v-243,0,-364,-121,-364,-364r0,-735r180,0r0,690v1,173,56,254,221,254v189,0,282,-167,282,-373r0,-571r180,0r0,1070r-171,0r0,-163v-65,109,-191,192,-328,192"},"\u016e":{"d":"729,-1528v-103,0,-188,-85,-188,-188v0,-103,85,-188,188,-188v103,0,188,85,188,188v0,103,-85,188,-188,188xm729,-1609v59,0,107,-49,107,-107v0,-59,-49,-107,-107,-107v-59,0,-107,49,-107,107v0,59,49,107,107,107xm741,-136v256,0,379,-155,379,-418r0,-916r199,0r0,931v3,360,-218,579,-578,579v-377,0,-579,-202,-579,-579r0,-931r199,0r0,916v-1,264,124,418,380,418","w":1479},"\u016f":{"d":"596,-1172v-103,0,-188,-85,-188,-188v0,-103,85,-188,188,-188v103,0,188,85,188,188v0,103,-85,188,-188,188xm596,-1253v59,0,107,-49,107,-107v0,-59,-49,-107,-107,-107v-59,0,-107,49,-107,107v0,59,49,107,107,107xm503,29v-243,0,-364,-121,-364,-364r0,-735r180,0r0,690v1,173,56,254,221,254v189,0,282,-167,282,-373r0,-571r180,0r0,1070r-171,0r0,-163v-65,109,-191,192,-328,192"},"\u0170":{"d":"462,-1617r182,-288r221,0r-264,288r-139,0xm829,-1617r182,-288r221,0r-264,288r-139,0xm741,-136v256,0,379,-155,379,-418r0,-916r199,0r0,931v3,360,-218,579,-578,579v-377,0,-579,-202,-579,-579r0,-931r199,0r0,916v-1,264,124,418,380,418","w":1479},"\u0171":{"d":"284,-1214r182,-288r221,0r-264,288r-139,0xm651,-1214r182,-288r221,0r-264,288r-139,0xm503,29v-243,0,-364,-121,-364,-364r0,-735r180,0r0,690v1,173,56,254,221,254v189,0,282,-167,282,-373r0,-571r180,0r0,1070r-171,0r0,-163v-65,109,-191,192,-328,192"},"\u0172":{"d":"781,460v-132,0,-242,-67,-242,-189v0,-139,104,-244,226,-272r136,0r0,8v-114,63,-205,108,-205,248v0,76,38,109,115,109v49,0,97,-14,131,-32r35,82v-46,26,-127,46,-196,46xm741,-136v256,0,379,-155,379,-418r0,-916r199,0r0,931v3,360,-218,579,-578,579v-377,0,-579,-202,-579,-579r0,-931r199,0r0,916v-1,264,124,418,380,418","w":1479},"\u0173":{"d":"874,460v-132,0,-242,-67,-242,-189v0,-139,104,-244,226,-272r136,0r0,8v-114,63,-205,108,-205,248v0,76,38,109,115,109v49,0,97,-14,131,-32r35,82v-46,26,-127,46,-196,46xm503,29v-243,0,-364,-121,-364,-364r0,-735r180,0r0,690v1,173,56,254,221,254v189,0,282,-167,282,-373r0,-571r180,0r0,1070r-171,0r0,-163v-65,109,-191,192,-328,192"},"\u0178":{"d":"424,-1847r186,0r0,210r-186,0r0,-210xm756,-1847r186,0r0,210r-186,0r0,-210xm584,-588r-555,-882r233,0r422,713r423,-713r230,0r-554,885r0,585r-199,0r0,-588","w":1366},"\u0179":{"d":"563,-1614r182,-288r221,0r-264,288r-139,0xm47,-173r907,-1121r-836,0r0,-176r1085,0r0,173r-907,1121r906,0r0,176r-1155,0r0,-173","w":1251},"\u017a":{"d":"440,-1214r182,-288r221,0r-264,288r-139,0xm63,-141r642,-779r-594,0r0,-150r835,0r0,141r-642,779r657,0r0,150r-898,0r0,-141","w":1024},"\u017b":{"d":"567,-1846r186,0r0,209r-186,0r0,-209xm47,-173r907,-1121r-836,0r0,-176r1085,0r0,173r-907,1121r906,0r0,176r-1155,0r0,-173","w":1251},"\u017c":{"d":"435,-1446r186,0r0,209r-186,0r0,-209xm63,-141r642,-779r-594,0r0,-150r835,0r0,141r-642,779r657,0r0,150r-898,0r0,-141","w":1024},"\u017d":{"d":"570,-1614r-203,-288r163,0r135,192r135,-192r163,0r-203,288r-190,0xm47,-173r907,-1121r-836,0r0,-176r1085,0r0,173r-907,1121r906,0r0,176r-1155,0r0,-173","w":1251},"\u017e":{"d":"450,-1214r-203,-288r163,0r135,192r135,-192r163,0r-203,288r-190,0xm63,-141r642,-779r-594,0r0,-150r835,0r0,141r-642,779r657,0r0,150r-898,0r0,-141","w":1024},"\u0192":{"d":"997,-1313v-24,-27,-66,-34,-128,-34v-52,0,-90,23,-119,67v-32,47,-69,219,-87,338r242,0r-1,140r-266,0r-114,657v-32,188,-80,329,-146,423v-66,94,-147,142,-244,142v-61,0,-113,-11,-156,-32r28,-160v27,21,67,29,129,30v54,0,99,-31,127,-98v87,-206,140,-682,196,-962r-226,0r1,-140r250,0v41,-278,99,-567,387,-567v61,0,112,11,155,32"},"\u02c6":{"d":"436,-1502r203,288r-163,0r-135,-192r-135,192r-163,0r203,-288r190,0","w":682},"\u02c7":{"d":"246,-1214r-203,-288r163,0r135,192r135,-192r163,0r-203,288r-190,0","w":682},"\u02c9":{"d":"29,-1339r624,0r0,125r-624,0r0,-125","w":682},"\u02d8":{"d":"678,-1496v-13,175,-128,279,-316,279v-188,0,-303,-104,-316,-279r97,0v26,105,93,165,219,165v139,0,188,-49,219,-165r97,0","w":682},"\u02d9":{"d":"229,-1446r186,0r0,209r-186,0r0,-209","w":682},"\u02da":{"d":"342,-1172v-103,0,-188,-85,-188,-188v0,-103,85,-188,188,-188v103,0,188,85,188,188v0,103,-85,188,-188,188xm342,-1253v59,0,107,-49,107,-107v0,-59,-49,-107,-107,-107v-59,0,-107,49,-107,107v0,59,49,107,107,107","w":682},"\u02db":{"d":"346,460v-132,0,-242,-67,-242,-189v0,-139,104,-244,226,-272r136,0r0,8v-114,63,-205,108,-205,248v0,76,38,109,115,109v49,0,97,-14,131,-32r35,82v-46,26,-127,46,-196,46","w":682},"\u02dc":{"d":"184,-1330v-54,0,-82,40,-92,91r-99,0v29,-139,65,-222,209,-222v107,0,188,75,296,75v54,0,81,-41,92,-91r99,0v-31,137,-66,222,-209,222v-99,0,-194,-75,-296,-75","w":682},"\u02dd":{"d":"58,-1214r182,-288r221,0r-264,288r-139,0xm425,-1214r182,-288r221,0r-264,288r-139,0","w":682},"\u03c0":{"d":"444,-805v-144,8,-174,59,-271,153r-61,-40v61,-107,119,-177,172,-214v118,-81,372,-54,567,-54v60,0,124,0,191,-2v67,-2,116,-4,146,-7r-30,164r-301,0v-44,240,-36,426,14,660v24,113,30,170,-71,170v-103,0,-134,-106,-131,-231v5,-215,47,-364,101,-599r-148,0r-116,652v-25,113,-26,178,-131,178v-44,0,-70,-15,-77,-45v-7,-30,2,-85,29,-165r211,-620r-94,0","w":1246},"\u2013":{"d":"0,-641r1138,0r0,148r-1138,0r0,-148"},"\u2014":{"d":"0,-641r2048,0r0,148r-2048,0r0,-148","w":2048},"\u2018":{"d":"346,-1183r0,218r-213,0v0,-149,-7,-335,49,-415v35,-50,87,-87,164,-106r0,94v-87,17,-110,98,-107,209r107,0","w":455},"\u2019":{"d":"109,-1251r0,-218r213,0v0,149,7,335,-49,415v-35,50,-87,87,-164,106r0,-94v87,-16,110,-99,107,-209r-107,0","w":455},"\u201a":{"d":"109,0r0,-218r213,0v0,0,7,334,-49,414v-35,50,-87,87,-164,106r0,-94v87,-17,110,-97,107,-208r-107,0","w":455},"\u201c":{"d":"291,-1183r0,218r-213,0v0,-149,-7,-335,49,-415v35,-50,87,-87,164,-106r0,94v-87,17,-110,98,-107,209r107,0xm629,-1183r0,218r-213,0v0,-149,-7,-335,49,-415v35,-50,87,-87,164,-106r0,94v-87,17,-110,98,-107,209r107,0","w":682},"\u201d":{"d":"53,-1251r0,-218r213,0v0,149,7,335,-49,415v-35,50,-87,87,-164,106r0,-94v87,-16,110,-99,107,-209r-107,0xm391,-1251r0,-218r213,0v0,149,7,335,-49,415v-35,50,-87,87,-164,106r0,-94v87,-16,110,-99,107,-209r-107,0","w":682},"\u201e":{"d":"53,0r0,-218r213,0v0,149,7,336,-49,416v-35,50,-87,86,-164,105r0,-94v87,-17,110,-98,107,-209r-107,0xm391,0r0,-218r213,0v0,149,7,336,-49,416v-35,50,-87,86,-164,105r0,-94v87,-17,110,-98,107,-209r-107,0","w":682},"\u2020":{"d":"88,-1039r385,0r0,-431r193,0r0,431r387,0r0,154r-387,0r0,1205r-193,0r0,-1205r-385,0r0,-154"},"\u2021":{"d":"88,-1057r385,0r0,-413r193,0r0,413r387,0r0,160r-387,0r0,648r387,0r0,155r-387,0r0,414r-193,0r0,-414r-385,0r0,-155r385,0r0,-648r-385,0r0,-160"},"\u2022":{"d":"37,-735v0,-176,146,-323,322,-323v176,0,322,147,322,323v0,176,-147,322,-322,322v-176,0,-322,-147,-322,-322","w":717},"\u2026":{"d":"236,-217r214,0r0,217r-214,0r0,-217xm917,-217r214,0r0,217r-214,0r0,-217xm1598,-217r214,0r0,217r-214,0r0,-217","w":2048},"\u2030":{"d":"334,-786v-169,0,-320,-150,-320,-319v0,-170,150,-320,320,-320v170,0,321,150,321,320v0,169,-152,319,-321,319xm334,-1315v-105,0,-194,102,-194,210v0,107,89,209,194,209v106,0,195,-101,195,-209v0,-109,-89,-210,-195,-210xm198,34r805,-1474r110,0r-805,1474r-110,0xm976,6v-169,0,-320,-150,-320,-319v0,-170,150,-320,320,-320v170,0,321,150,321,320v0,169,-152,319,-321,319xm976,-523v-105,0,-194,102,-194,210v0,107,89,209,194,209v106,0,195,-101,195,-209v0,-109,-89,-210,-195,-210xm1709,6v-169,0,-320,-150,-320,-319v0,-170,150,-320,320,-320v170,0,321,150,321,320v0,169,-152,319,-321,319xm1709,-523v-105,0,-194,102,-194,210v0,107,89,209,194,209v106,0,195,-101,195,-209v0,-109,-89,-210,-195,-210","w":2048},"\u2039":{"d":"502,-733r-216,167r216,167r0,178r-322,-249r0,-192r322,-249r0,178","w":682},"\u203a":{"d":"180,-399r216,-167r-216,-167r0,-178r322,249r0,192r-322,249r0,-178","w":682},"\u2044":{"d":"681,-1441r-902,1485r-118,0r902,-1485r118,0","w":342},"\u2074":{"d":"21,-774r0,-125r397,-512r108,0r0,527r126,0r0,110r-126,0r0,201r-135,0r0,-201r-370,0xm391,-884r0,-321r-249,321r249,0","w":682},"\u20ac":{"d":"636,-137v164,-6,240,-149,271,-315r192,0v-34,272,-190,487,-469,491v-277,4,-433,-228,-471,-499r-159,0r36,-176r106,0r0,-116r-142,0r36,-176r123,0v44,-270,213,-516,490,-512v265,3,418,198,450,452r-192,0v-28,-152,-108,-271,-265,-276v-157,-6,-252,173,-278,336r421,0r-36,176r-401,0r-1,116r378,0r-36,176r-323,0v26,160,116,329,270,323"},"\u2122":{"d":"1148,-1470r238,618r234,-618r229,0r0,845r-147,0r0,-694r-263,694r-110,0r-263,-684r0,684r-147,0r0,-845r229,0xm351,-625r0,-722r-257,0r0,-123r667,0r0,123r-258,0r0,722r-152,0","w":2048},"\u2126":{"d":"654,-1327v-189,0,-319,169,-310,372v16,351,151,665,255,955r-413,0r-74,-410r74,-12v22,92,45,148,62,171v26,34,119,38,193,36v-21,-41,-51,-94,-89,-161v-95,-169,-251,-343,-251,-576v0,-296,242,-464,553,-464v362,0,660,274,516,642v-77,196,-207,375,-302,559r79,0v131,-6,141,-76,176,-207r73,12r-74,410r-412,0v81,-225,125,-346,130,-361r30,-97v49,-157,91,-325,95,-494v5,-203,-122,-375,-311,-375","w":1246},"\u2202":{"d":"418,32v-208,1,-337,-194,-337,-417v0,-276,206,-602,457,-599v83,1,138,29,201,66v14,-127,8,-227,-17,-302v-32,-98,-104,-145,-182,-84v-41,32,-72,129,-102,154v-41,35,-124,20,-146,-30v-15,-34,-17,-68,2,-106v36,-74,146,-148,251,-148v131,0,229,52,294,155v65,103,97,258,97,465v0,248,-49,451,-146,609v-97,158,-221,237,-372,237xm683,-661v0,-139,-35,-240,-156,-240v-71,0,-131,55,-181,167v-50,112,-75,249,-75,410v0,124,51,272,152,272v72,0,133,-59,184,-178v51,-119,76,-262,76,-431","w":1020},"\u2206":{"d":"740,-1391r582,1391r-1285,0xm667,-1077r-446,883r799,0","w":1360},"\u220f":{"d":"657,-128v7,273,17,345,244,378r0,65r-704,0r0,-65v227,-33,244,-105,244,-378r0,-901v-4,-274,-15,-344,-244,-377r0,-65r1645,0r0,65v-226,33,-244,105,-244,377r0,901v7,273,17,345,244,378r0,65r-704,0r0,-65v234,-33,244,-99,244,-378r0,-1262r-725,0r0,1262","w":2039},"\u2211":{"d":"416,315r491,-838r-482,-948r1119,0r46,366r-70,14v-38,-98,-92,-197,-160,-239v-60,-37,-142,-59,-250,-59r-403,0r370,740r-451,756r524,0v233,2,303,-107,390,-272r70,21r-117,459r-1077,0","w":2039},"\u2212":{"d":"114,-590r968,0r0,150r-968,0r0,-150","w":1196},"\u2219":{"d":"158,-830r214,0r0,217r-214,0r0,-217","w":569},"\u221a":{"d":"56,-438r298,-194r506,750r480,-1647r382,0r0,86r-281,0r-553,1817r-74,0r-570,-821r-145,105","w":1473},"\u221e":{"d":"697,-149v-227,0,-414,-192,-414,-420v0,-228,178,-432,402,-425v210,7,285,107,386,263v83,-119,171,-212,335,-217v206,-6,348,166,348,377v0,204,-143,379,-340,376v-161,-3,-266,-96,-324,-218v-71,104,-132,174,-186,210v-54,36,-123,54,-207,54xm667,-831v-148,-4,-273,118,-273,264v0,136,105,255,238,255v73,0,138,-24,194,-73v56,-49,109,-126,159,-232v-75,-129,-145,-208,-318,-214xm1429,-358v129,3,214,-83,214,-211v0,-128,-89,-221,-217,-216v-151,6,-200,94,-268,219v46,114,131,205,271,208","w":2039},"\u222b":{"d":"1052,404v-84,110,-300,56,-300,-85v0,-79,93,-137,153,-77v31,31,23,76,16,121v-2,13,11,23,25,22v35,1,58,-28,70,-87v12,-59,9,-133,-8,-222v-24,-127,-45,-269,-69,-425v-50,-327,-85,-779,-22,-1015v37,-137,106,-205,206,-205v83,0,158,64,158,144v0,67,-29,104,-94,104v-87,0,-98,-59,-68,-149v4,-12,-12,-21,-26,-20v-51,0,-78,43,-80,130v-2,87,18,252,65,492v58,297,100,796,49,1092v-14,80,-43,138,-75,180","w":2039},"\u2248":{"d":"714,-364v-98,0,-218,64,-269,121r-31,-32v58,-108,203,-239,345,-239v209,0,413,134,636,134v92,0,202,-65,248,-122r37,22v-52,131,-166,250,-326,250v-211,0,-453,-134,-640,-134xm714,-715v-98,0,-218,64,-269,121r-31,-32v58,-108,203,-239,345,-239v209,0,413,134,636,134v92,0,202,-65,248,-122r37,22v-52,131,-166,250,-326,250v-211,0,-453,-134,-640,-134","w":2039},"\u2260":{"d":"410,93r318,-372r-321,0r0,-135r437,0r236,-276r-673,0r0,-135r788,0r317,-367r164,0r-315,367r312,0r0,135r-427,0r-236,276r663,0r0,135r-779,0r-318,372r-166,0","w":2039},"\u2264":{"d":"1683,-1235r0,135r-1063,410r1063,309r0,135r-1266,-377r0,-135xm417,-135r1266,0r0,135r-1266,0r0,-135","w":2039},"\u2265":{"d":"417,-1235r1266,477r0,135r-1266,377r0,-135r1063,-309r-1063,-410r0,-135xm417,-135r1266,0r0,135r-1266,0r0,-135","w":2039},"\u25ca":{"d":"530,-1423r110,0r404,712r-404,711r-110,0r-404,-711xm585,-1324r-349,613r349,615r349,-615","w":1171},"\uefed":{"d":"229,-1846r186,0r0,209r-186,0r0,-209","w":682},"\uefee":{"d":"678,-1896v-13,175,-128,279,-316,279v-188,0,-303,-104,-316,-279r97,0v26,105,93,165,219,165v139,0,188,-49,219,-165r97,0","w":682},"\uefef":{"d":"29,-1739r624,0r0,125r-624,0r0,-125","w":682},"\ueff0":{"d":"58,-1617r182,-288r221,0r-264,288r-139,0xm425,-1617r182,-288r221,0r-264,288r-139,0","w":682},"\ueff1":{"d":"346,460v-132,0,-242,-67,-242,-189v0,-139,104,-244,226,-272r136,0r0,8v-114,63,-205,108,-205,248v0,76,38,109,115,109v49,0,97,-14,131,-32r35,82v-46,26,-127,46,-196,46","w":682},"\ueff2":{"d":"375,278v-1,-80,-109,-96,-179,-63r-34,-38r131,-179r97,0r-93,128v123,-26,235,26,233,147v-3,150,-170,217,-332,176v-36,-9,-71,-19,-106,-32r34,-82v79,32,251,62,249,-57","w":682},"\ueff3":{"d":"342,-1528v-103,0,-188,-85,-188,-188v0,-103,85,-188,188,-188v103,0,188,85,188,188v0,103,-85,188,-188,188xm342,-1609v59,0,107,-49,107,-107v0,-59,-49,-107,-107,-107v-59,0,-107,49,-107,107v0,59,49,107,107,107","w":682},"\ueff4":{"d":"246,-1614r-203,-288r163,0r135,192r135,-192r163,0r-203,288r-190,0","w":682},"\ueff5":{"d":"184,-1728v-54,0,-82,40,-92,91r-99,0v29,-139,65,-222,209,-222v107,0,189,75,296,75v54,0,81,-41,92,-91r99,0v-31,137,-66,222,-209,222v-100,0,-194,-75,-296,-75","w":682},"\ueff6":{"d":"82,-1847r186,0r0,210r-186,0r0,-210xm414,-1847r186,0r0,210r-186,0r0,-210","w":682},"\ueff7":{"d":"436,-1902r203,288r-163,0r-135,-192r-135,192r-163,0r203,-288r190,0","w":682},"\ueff8":{"d":"297,-1614r-268,-288r223,0r180,288r-135,0","w":682},"\ueff9":{"d":"250,-1614r182,-288r221,0r-264,288r-139,0","w":682},"\uf001":{"d":"465,-1329v-73,0,-109,52,-108,129r0,130r179,0r0,149r-179,0r0,921r-180,0r0,-921r-148,0r0,-149r148,0r0,-182v-4,-196,151,-256,359,-236r0,162xm707,0r0,-1070r180,0r0,1070r-180,0xm705,-1470r184,0r0,204r-184,0r0,-204","w":1024},"\uf002":{"d":"465,-1329v-73,0,-109,52,-108,129r0,130r179,0r0,149r-179,0r0,921r-180,0r0,-921r-148,0r0,-149r148,0r0,-182v-4,-196,151,-256,359,-236r0,162xm707,0r0,-1470r180,0r0,1470r-180,0","w":1024},"\ufb01":{"d":"465,-1329v-73,0,-109,52,-108,129r0,130r179,0r0,149r-179,0r0,921r-180,0r0,-921r-148,0r0,-149r148,0r0,-182v-4,-196,151,-256,359,-236r0,162xm707,0r0,-1070r180,0r0,1070r-180,0xm705,-1470r184,0r0,204r-184,0r0,-204","w":1024}}});
/*!
 * The following copyright notice may not be removed under any circumstances.
 * 
 * Copyright:
 * Copyright (c) 1992-97 Hewlett-Packard. All rights reserved.
 */
Cufon.registerFont({"w":934,"face":{"font-family":"helv","font-weight":700,"font-stretch":"condensed","units-per-em":"2048","panose-1":"2 11 6 6 2 2 2 3 2 4","ascent":"1638","descent":"-410","x-height":"29","bbox":"-284 -1957 1842 549","underline-thickness":"102","underline-position":"-154","unicode-range":"U+0020-U+FB01"},"glyphs":{" ":{"w":467},"!":{"d":"216,-409r-64,-703r0,-359r257,0r0,359r-65,703r-128,0xm157,-288r246,0r0,288r-246,0r0,-288","w":559},"\"":{"d":"164,-912r0,-558r165,0r0,558r-165,0xm466,-912r0,-558r165,0r0,558r-165,0","w":797},"#":{"d":"465,-1429r-45,407r161,0r45,-407r161,0r-45,407r161,0r-20,184r-161,0r-27,244r161,0r-20,184r-162,0r-45,410r-161,0r45,-410r-161,0r-45,410r-161,0r45,-410r-160,0r20,-184r161,0r27,-244r-161,0r20,-184r161,0r45,-407r161,0xm398,-838r-26,244r163,0r26,-244r-163,0"},"$":{"d":"75,-1055v-2,-230,135,-385,353,-392r0,-143r76,0r0,142v231,17,356,172,359,418r-222,0v-6,-124,-30,-185,-137,-200r0,382v145,55,243,112,295,170v53,59,80,144,80,255v2,265,-132,446,-375,461r0,198r-76,0r0,-198v-265,-22,-372,-182,-377,-475r228,0v4,150,34,231,149,257r0,-427v-233,-96,-351,-149,-353,-448xm428,-1230v-78,5,-140,70,-137,156v3,118,48,150,137,196r0,-352xm504,-180v95,-14,154,-95,151,-205v-3,-111,-59,-147,-151,-190r0,395"},"%":{"d":"352,-705v-178,0,-305,-183,-305,-373v0,-192,126,-375,305,-375v179,0,305,184,305,375v0,191,-127,373,-305,373xm352,-1243v-82,0,-132,76,-132,165v0,88,50,163,132,163v82,0,132,-75,132,-163v0,-89,-50,-165,-132,-165xm349,38r672,-1491r124,0r-672,1491r-124,0xm1141,24v-178,0,-305,-183,-305,-373v0,-192,126,-375,305,-375v179,0,305,184,305,375v0,191,-127,373,-305,373xm1141,-514v-82,0,-132,76,-132,165v0,88,50,163,132,163v82,0,132,-75,132,-163v0,-89,-50,-165,-132,-165","w":1493},"&":{"d":"346,-819v-55,-77,-102,-187,-104,-294v-5,-208,120,-354,322,-354v189,0,298,142,298,339v0,146,-105,290,-204,365r166,245v35,-79,58,-168,65,-247r212,0v-14,154,-70,331,-138,451r214,314r-288,0r-74,-111v-83,82,-198,148,-343,149v-227,2,-387,-186,-382,-419v4,-220,105,-335,256,-438xm326,-403v0,148,148,258,283,171v30,-19,58,-40,82,-66r-227,-341v-71,50,-138,136,-138,236xm558,-1248v-99,1,-126,112,-80,202v17,34,35,71,61,108v55,-40,121,-117,121,-188v0,-70,-36,-122,-102,-122","w":1212},"'":{"d":"117,-912r0,-558r165,0r0,558r-165,0","w":399},"(":{"d":"354,426v-175,-279,-295,-560,-295,-964v0,-402,121,-687,295,-964r172,0v-144,299,-223,556,-223,964v0,407,79,667,223,964r-172,0","w":559},")":{"d":"205,-1502v175,279,295,560,295,964v0,402,-121,687,-295,964r-172,0v144,-299,223,-556,223,-964v0,-407,-79,-667,-223,-964r172,0","w":559},"*":{"d":"392,-1467r0,233r175,-72r40,157r-175,71r109,188r-107,98r-108,-189r-108,189r-107,-98r109,-188r-175,-71r40,-157r175,72r0,-233r132,0","w":653},"+":{"d":"397,-404r-329,0r0,-230r329,0r0,-400r186,0r0,400r329,0r0,230r-329,0r0,400r-186,0r0,-400","w":981},",":{"d":"106,0r0,-301r252,0v0,186,10,403,-60,510v-43,66,-103,112,-187,132r0,-110v100,-30,125,-100,133,-231r-138,0","w":467},"-":{"d":"45,-706r468,0r0,266r-468,0r0,-266","w":559},".":{"d":"106,-300r252,0r0,300r-252,0r0,-300","w":467},"\/":{"d":"521,-1514r-376,1551r-199,0r376,-1551r199,0","w":467},"0":{"d":"153,-142v-127,-205,-127,-928,0,-1132v72,-116,171,-179,314,-179v144,0,244,63,316,179v127,206,126,928,-1,1132v-72,116,-171,179,-315,179v-143,0,-242,-63,-314,-179xm602,-309v50,-132,50,-666,0,-797v-30,-79,-72,-120,-135,-120v-62,0,-103,42,-133,120v-51,132,-51,665,0,797v30,78,71,119,133,119v63,0,105,-41,135,-119"},"1":{"d":"117,-1206v229,3,282,-63,345,-247r173,0r0,1453r-235,0r0,-1052r-283,18r0,-172"},"2":{"d":"454,-1453v242,-2,404,202,404,453v0,103,-22,190,-67,263v-45,73,-129,158,-252,257v-107,85,-182,161,-227,227r546,0r0,253r-815,0v0,-132,27,-243,81,-334v54,-91,159,-194,306,-317v123,-103,186,-146,193,-324v5,-118,-60,-237,-165,-237v-148,0,-178,101,-177,269r-230,0v-9,-289,135,-508,403,-510"},"3":{"d":"356,-840v153,9,239,-45,239,-191v0,-121,-46,-192,-161,-192v-115,0,-145,102,-150,232r-223,0v3,-259,139,-460,384,-462v248,-2,385,150,385,401v0,129,-52,227,-140,282v112,56,176,168,176,329v0,269,-155,479,-411,478v-281,-2,-407,-190,-410,-484r228,0v3,149,40,257,171,257v118,0,182,-110,182,-239v0,-150,-106,-217,-270,-205r0,-206"},"4":{"d":"45,-321r0,-242r444,-894r260,0r0,909r134,0r0,227r-134,0r0,321r-235,0r0,-321r-469,0xm514,-548r0,-596r-293,596r293,0"},"5":{"d":"504,-952v234,0,362,213,362,468v0,285,-147,520,-411,521v-247,1,-403,-178,-410,-425r240,0v3,111,63,198,170,198v118,0,171,-131,171,-267v0,-138,-53,-265,-171,-268v-76,-2,-143,45,-165,101r-204,-13r83,-792r648,0r0,242r-483,0r-40,309v67,-49,137,-74,210,-74"},"6":{"d":"873,-489v0,289,-126,526,-387,526v-145,0,-250,-64,-327,-181v-146,-221,-133,-902,4,-1118v79,-124,184,-191,332,-191v225,0,346,145,354,370r-228,0v-2,-83,-54,-144,-136,-144v-68,0,-119,45,-153,135v-24,66,-40,156,-47,269v65,-77,140,-116,226,-116v237,0,362,197,362,450xm467,-712v-134,0,-176,109,-176,262v0,137,61,260,183,260v123,0,165,-118,164,-260v0,-152,-38,-262,-171,-262"},"7":{"d":"887,-1211v-269,415,-374,638,-445,1211r-241,0v73,-551,171,-780,430,-1176r-590,0r0,-253r846,0r0,218"},"8":{"d":"844,-1062v0,126,-61,230,-151,286v112,65,188,193,188,353v0,262,-160,460,-414,460v-248,0,-414,-182,-414,-434v0,-170,74,-308,190,-377v-90,-56,-152,-161,-152,-288v0,-228,151,-391,376,-391v226,0,377,163,377,391xm316,-1043v0,106,51,181,151,181v100,0,152,-75,152,-181v0,-107,-52,-183,-152,-183v-100,0,-151,77,-151,183xm641,-415v0,-130,-55,-227,-174,-227v-119,0,-174,98,-174,227v0,129,55,225,174,225v118,0,174,-97,174,-225"},"9":{"d":"51,-927v0,-289,127,-526,389,-526v146,0,250,64,328,181v146,220,135,902,-3,1118v-79,124,-185,191,-334,191v-226,0,-348,-145,-356,-370r228,0v2,83,55,144,138,144v69,0,120,-45,154,-135v25,-66,40,-156,47,-270v-65,78,-140,117,-227,117v-237,0,-364,-197,-364,-450xm458,-704v136,0,179,-108,179,-262v0,-138,-62,-260,-186,-260v-123,0,-166,118,-165,260v0,152,39,262,172,262"},":":{"d":"154,-300r252,0r0,300r-252,0r0,-300xm154,-1047r252,0r0,300r-252,0r0,-300","w":559},";":{"d":"154,0r0,-301r252,0v0,186,10,403,-60,510v-43,66,-103,112,-187,132r0,-110v100,-30,125,-100,133,-231r-138,0xm154,-1047r252,0r0,300r-252,0r0,-300","w":559},"<":{"d":"63,-429r0,-180r855,-449r0,227r-601,314r601,316r0,221","w":981},"=":{"d":"68,-408r844,0r0,230r-844,0r0,-230xm68,-861r844,0r0,230r-844,0r0,-230","w":981},">":{"d":"918,-429r-855,449r0,-221r601,-316r-601,-314r0,-227r855,449r0,180","w":981},"?":{"d":"657,-946v61,-124,5,-312,-140,-305v-133,6,-172,100,-177,247r-240,0v5,-282,146,-487,417,-489v257,-3,424,179,417,440v-5,193,-83,260,-209,377v-72,67,-102,125,-99,258r-218,0v-3,-216,47,-311,165,-424v40,-38,68,-73,84,-104xm395,-288r244,0r0,288r-244,0r0,-288","w":1026},"@":{"d":"470,-655v0,-239,142,-479,359,-482v96,-1,161,59,193,145r22,-116r152,0r-100,522v-8,41,-11,72,-8,90v3,18,11,27,24,27v53,0,97,-35,133,-105v36,-70,54,-155,54,-256v0,-290,-169,-513,-447,-513v-302,0,-484,286,-484,611v0,327,181,611,485,611v156,1,306,-80,365,-181r157,0v-79,178,-272,337,-506,341v-385,7,-670,-373,-670,-776v0,-398,270,-775,644,-775v329,0,594,287,594,620v0,166,-42,309,-127,428v-85,119,-186,179,-303,179v-54,0,-86,-58,-91,-115v-52,73,-111,116,-176,115v-170,-2,-270,-181,-270,-370xm847,-941v-126,1,-203,140,-200,281v2,99,45,171,138,171v118,0,162,-106,187,-226v22,-108,-31,-227,-125,-226","w":1638},"A":{"d":"462,-1470r289,0r428,1470r-270,0r-79,-298r-453,0r-81,298r-263,0xm607,-1139r-158,580r314,0","w":1212},"B":{"d":"1124,-445v0,267,-165,445,-428,445r-569,0r0,-1470r567,0v238,-2,390,138,390,373v0,136,-57,245,-149,307v119,57,189,177,189,345xm844,-1055v0,-127,-65,-162,-201,-162r-271,0r0,323r285,0v121,0,187,-46,187,-161xm871,-449v0,-135,-64,-198,-200,-198r-299,0r0,394r324,0v124,-1,175,-68,175,-196","w":1212},"C":{"d":"633,-223v156,-1,249,-126,263,-280r253,0v-28,300,-211,541,-516,541v-171,0,-303,-72,-408,-208v-197,-256,-197,-874,0,-1129v105,-136,237,-209,408,-209v302,1,490,230,516,523r-253,0v-13,-149,-110,-262,-263,-262v-93,0,-165,48,-223,139v-108,169,-108,578,0,747v58,90,129,138,223,138","w":1212},"D":{"d":"127,0r0,-1470r517,0v166,0,292,60,378,180v86,120,129,296,129,527v0,239,-45,426,-135,561v-90,135,-216,202,-377,202r-512,0xm380,-253r248,0v83,0,145,-47,197,-133v93,-154,95,-572,1,-715v-50,-76,-120,-116,-219,-116r-227,0r0,964","w":1212},"E":{"d":"127,0r0,-1470r892,0r0,261r-639,0r0,308r584,0r0,261r-584,0r0,379r662,0r0,261r-915,0","w":1120},"F":{"d":"127,0r0,-1470r858,0r0,261r-605,0r0,330r536,0r0,261r-536,0r0,618r-253,0","w":1026},"G":{"d":"1005,-181v-84,140,-209,221,-362,219v-174,-2,-313,-69,-415,-208v-103,-139,-154,-327,-154,-564v0,-433,206,-771,606,-774v290,-2,495,219,518,494r-253,0v-20,-124,-129,-241,-263,-241v-245,0,-355,241,-355,517v0,298,96,506,362,515v159,5,263,-161,289,-318r-285,0r0,-253r505,0r0,791r-165,0","w":1307},"H":{"d":"119,0r0,-1470r253,0r0,547r468,0r0,-547r253,0r0,1470r-253,0r0,-662r-468,0r0,662r-253,0","w":1212},"I":{"d":"106,0r0,-1470r253,0r0,1470r-253,0","w":467},"J":{"d":"422,-210v119,0,138,-82,138,-219r0,-1041r253,0r0,1041v-1,303,-102,465,-388,467v-329,2,-395,-231,-388,-588r235,0v0,171,-3,340,150,340"},"K":{"d":"145,0r0,-1470r253,0r0,610r466,-610r327,0r-499,608r520,862r-326,0r-370,-648r-118,144r0,504r-253,0","w":1212},"L":{"d":"127,0r0,-1470r253,0r0,1209r599,0r0,261r-852,0","w":1026},"M":{"d":"484,-1470r222,1167r214,-1167r364,0r0,1470r-233,0r0,-1226r-226,1226r-248,0r-227,-1236r0,1236r-233,0r0,-1470r367,0","w":1399},"N":{"d":"355,0r-238,0r0,-1470r266,0r476,1017r0,-1017r238,0r0,1470r-247,0r-495,-1057r0,1057","w":1212},"O":{"d":"230,-170v-205,-256,-204,-874,0,-1129v109,-136,246,-209,423,-209v178,0,314,73,423,209v204,256,205,874,0,1129v-109,136,-245,208,-423,208v-177,0,-314,-72,-423,-208xm892,-361v110,-172,109,-575,0,-747v-114,-179,-363,-180,-477,0v-109,172,-110,575,0,747v114,179,362,179,477,0","w":1307},"P":{"d":"1052,-1001v0,265,-134,468,-383,468r-289,0r0,533r-253,0r0,-1470r529,0v273,1,396,181,396,469xm799,-1000v0,-138,-50,-215,-181,-215r-238,0r0,429r251,0v125,-2,168,-80,168,-214","w":1120},"Q":{"d":"1106,104r-138,-164v-87,65,-192,98,-315,98v-177,0,-314,-72,-423,-208v-205,-256,-204,-874,0,-1129v109,-136,246,-209,423,-209v178,0,319,70,423,209v104,139,157,328,157,565v0,212,-42,385,-126,519r129,156xm676,-408r134,-167r119,144v78,-184,59,-527,-37,-677v-114,-179,-363,-180,-477,0v-109,172,-111,576,0,747v85,131,244,177,383,98","w":1307},"R":{"d":"1086,-218v3,102,-3,147,50,180r0,37r-275,0v-26,-84,-30,-229,-28,-343v3,-152,-33,-228,-174,-228r-279,0r0,572r-253,0r0,-1470r571,0v270,-1,417,142,417,411v0,167,-66,294,-179,357v102,55,149,162,150,319r0,165xm862,-1016v0,-130,-53,-198,-179,-199r-303,0r0,397r289,0v132,0,193,-64,193,-198","w":1212},"S":{"d":"542,-1508v299,0,464,185,476,479r-241,0v-5,-134,-97,-226,-235,-226v-128,0,-223,65,-223,186v0,44,18,79,54,104v36,25,104,51,204,76v183,47,309,103,378,168v68,65,102,160,102,287v2,296,-187,472,-486,472v-318,0,-501,-181,-505,-494r243,0v2,157,100,241,262,241v137,0,245,-61,247,-185v0,-51,-22,-92,-65,-121v-43,-29,-125,-59,-246,-90v-161,-41,-271,-94,-332,-157v-60,-63,-90,-157,-90,-284v0,-283,173,-456,457,-456","w":1120},"T":{"d":"387,0r0,-1209r-364,0r0,-261r980,0r0,261r-363,0r0,1209r-253,0","w":1026},"U":{"d":"607,-223v164,0,233,-115,233,-291r0,-956r253,0r0,973v2,330,-165,535,-486,535v-319,0,-486,-206,-486,-535r0,-973r253,0r0,956v-1,176,69,291,233,291","w":1212},"V":{"d":"302,-1470r261,1124r263,-1124r261,0r-407,1470r-240,0r-407,-1470r269,0","w":1120},"W":{"d":"368,0r-341,-1470r265,0r202,1070r165,-1070r264,0r183,1075r202,-1075r252,0r-337,1470r-240,0r-192,-1161r-191,1161r-232,0","w":1585},"X":{"d":"790,0r-228,-494r-244,494r-295,0r391,-743r-364,-727r295,0r215,473r220,-473r288,0r-371,705r398,765r-305,0","w":1120},"Y":{"d":"445,-549r-420,-921r293,0r258,649r239,-649r280,0r-397,918r0,552r-253,0r0,-549","w":1120},"Z":{"d":"41,-257r627,-952r-607,0r0,-261r920,0r0,243r-635,966r639,0r0,261r-944,0r0,-257","w":1026},"[":{"d":"106,400r0,-1878r412,0r0,194r-208,0r0,1490r208,0r0,194r-412,0","w":559},"\\":{"d":"322,37r-376,-1551r199,0r376,1551r-199,0","w":467},"]":{"d":"453,400r-412,0r0,-194r208,0r0,-1490r-208,0r0,-194r412,0r0,1878","w":559},"^":{"d":"572,-1428r305,764r-184,0r-203,-540r-202,540r-184,0r304,-764r164,0","w":981},"_":{"d":"0,256r0,-101r934,0r0,101r-934,0"},"`":{"d":"208,-1236r-246,-300r257,0r158,300r-169,0","w":559},"a":{"d":"835,-218v2,104,-2,146,50,180r0,37r-254,0v-11,-38,-18,-82,-21,-132v-73,108,-169,162,-289,162v-174,1,-272,-136,-272,-318v0,-197,96,-310,262,-345v91,-19,207,-26,273,-70v13,-9,22,-35,21,-58v-1,-91,-58,-125,-155,-124v-92,1,-136,60,-145,150r-225,0v33,-267,115,-377,396,-381v218,-3,359,110,359,321r0,578xm392,-176v117,1,214,-87,213,-228r0,-119v-68,48,-236,54,-284,108v-22,25,-36,58,-36,104v0,81,32,134,107,135"},"b":{"d":"608,29v-114,0,-209,-61,-271,-166r0,137r-235,0r0,-1470r235,0r0,523v61,-106,157,-170,272,-170v111,0,197,54,265,155v127,189,127,647,-1,836v-68,101,-154,155,-265,155xm530,-872v-156,0,-200,150,-200,334v0,109,17,192,51,249v33,57,83,85,148,85v156,0,202,-149,202,-333v0,-185,-44,-335,-201,-335","w":1026},"c":{"d":"485,-206v96,0,146,-93,156,-193r240,0v-23,239,-170,428,-414,428v-279,0,-410,-233,-410,-538v0,-195,37,-345,111,-450v74,-105,180,-158,317,-158v258,0,369,165,396,419r-240,0v-9,-96,-61,-179,-156,-179v-142,0,-186,147,-185,316v0,128,14,219,42,273v28,54,76,82,143,82"},"d":{"d":"430,-1117v111,0,202,64,261,170r0,-523r235,0r0,1470r-235,0r0,-144v-57,105,-151,173,-263,173v-113,0,-200,-54,-270,-155v-131,-189,-131,-647,0,-836v70,-101,158,-155,272,-155xm698,-538v0,-179,-47,-331,-199,-331v-154,0,-198,149,-198,332v0,183,44,330,198,330v155,0,199,-149,199,-331","w":1026},"e":{"d":"879,-316v-36,191,-172,345,-383,345v-334,0,-454,-233,-457,-595v-2,-306,142,-551,424,-551v334,0,443,286,422,657r-608,0v12,156,55,259,204,261v79,1,134,-49,147,-117r251,0xm459,-885v-121,0,-168,106,-180,238r363,0v-8,-134,-58,-238,-183,-238"},"f":{"d":"459,-1252v-89,-4,-74,72,-77,164r152,0r0,205r-152,0r0,883r-235,0r0,-883r-131,0r0,-205r131,0v-14,-240,54,-402,277,-402v41,0,77,1,110,6r0,232r-75,0","w":559},"g":{"d":"345,120v9,69,76,106,159,106v124,0,190,-72,189,-198r0,-177v-106,211,-395,194,-523,4v-128,-189,-133,-635,0,-820v71,-99,161,-152,276,-152v111,0,203,69,259,175r0,-146r223,0r0,1116v3,253,-175,418,-430,418v-238,0,-381,-112,-404,-326r251,0xm700,-550v0,-179,-44,-322,-196,-322v-152,0,-196,145,-196,323v0,179,44,322,196,322v152,0,196,-145,196,-323","w":1026},"h":{"d":"533,-878v-141,0,-190,125,-189,286r0,592r-235,0r0,-1470r235,0r0,524v56,-100,149,-171,262,-171v195,0,311,151,311,355r0,762r-235,0r0,-677v1,-118,-42,-201,-149,-201","w":1026},"i":{"d":"117,0r0,-1088r235,0r0,1088r-235,0xm118,-1484r232,0r0,266r-232,0r0,-266","w":467},"j":{"d":"4,213v77,9,111,-23,111,-98r0,-1203r235,0r0,1203v-4,237,-54,321,-281,325r-65,0r0,-227xm117,-1484r232,0r0,266r-232,0r0,-266","w":467},"k":{"d":"117,0r0,-1470r235,0r0,800r295,-418r288,0r-322,414r330,674r-282,0r-212,-464r-97,125r0,339r-235,0"},"l":{"d":"117,0r0,-1470r235,0r0,1470r-235,0","w":467},"m":{"d":"490,-877v-111,0,-150,99,-149,226r0,651r-235,0r0,-1088r223,0r0,181v40,-111,137,-210,260,-210v125,0,218,75,254,176v44,-95,132,-176,239,-176v191,0,305,148,305,348r0,769r-235,0r0,-707v1,-99,-36,-170,-126,-170v-117,0,-162,96,-161,226r0,651r-235,0r0,-688v1,-111,-39,-189,-140,-189","w":1493},"n":{"d":"533,-878v-141,0,-190,125,-189,286r0,592r-235,0r0,-1088r223,0r0,167v51,-107,152,-196,274,-196v195,0,311,151,311,355r0,762r-235,0r0,-677v1,-118,-42,-201,-149,-201","w":1026},"o":{"d":"514,29v-299,0,-457,-251,-457,-572v0,-323,157,-574,457,-574v301,0,457,252,457,574v0,322,-156,572,-457,572xm514,-211v163,0,215,-145,214,-332v0,-189,-51,-334,-214,-334v-163,0,-214,146,-214,334v0,188,51,332,214,332","w":1026},"p":{"d":"609,29v-114,0,-209,-61,-270,-166r0,563r-235,0r0,-1514r223,0r0,160v59,-110,160,-189,283,-189v111,0,196,54,264,155v126,189,127,647,0,836v-68,101,-154,155,-265,155xm332,-538v0,184,43,334,198,334v156,0,201,-149,201,-333v0,-185,-44,-335,-200,-335v-156,0,-199,150,-199,334","w":1026},"q":{"d":"679,-124v-115,210,-394,192,-521,-2v-126,-193,-131,-647,0,-836v70,-101,158,-155,272,-155v121,0,224,84,275,200r0,-171r223,0r0,1514r-235,0r0,-573xm698,-538v0,-179,-47,-331,-199,-331v-154,0,-198,149,-198,332v0,183,44,330,198,330v155,0,199,-149,199,-331","w":1026},"r":{"d":"626,-822v-188,-29,-285,67,-285,260r0,562r-235,0r0,-1088r226,0r0,191r31,-66v68,-117,134,-169,263,-150r0,291","w":653},"s":{"d":"454,-1117v241,0,377,124,387,355r-224,0v-3,-85,-65,-139,-155,-139v-85,0,-142,28,-144,104v0,26,12,47,37,63v25,15,71,32,140,50v144,37,243,79,297,128v54,48,81,119,81,212v1,237,-160,373,-403,373v-256,0,-415,-131,-419,-377r241,0v1,105,70,161,178,161v98,0,165,-32,167,-120v0,-25,-15,-46,-44,-63v-29,-17,-83,-35,-164,-56v-132,-34,-223,-75,-272,-122v-49,-47,-74,-116,-74,-208v-2,-227,143,-361,371,-361"},"t":{"d":"374,-283v-8,88,62,74,144,76r0,215v-39,3,-88,5,-145,5v-167,-1,-233,-75,-234,-244r0,-652r-123,0r0,-205r123,0r0,-293r235,0r0,293r144,0r0,205r-144,0r0,600","w":559},"u":{"d":"420,29v-210,-5,-309,-161,-309,-387r0,-730r235,0r0,680v-1,115,42,198,147,198v135,0,188,-108,187,-257r0,-621r235,0r0,1088r-223,0r0,-157v-48,106,-152,189,-272,186","w":1026},"v":{"d":"281,-1088r190,796r191,-796r249,0r-321,1088r-246,0r-321,-1088r258,0"},"w":{"d":"270,0r-254,-1088r254,0r138,796r132,-796r236,0r139,793r133,-793r245,0r-254,1088r-246,0r-142,-787r-135,787r-246,0","w":1307},"x":{"d":"622,0r-153,-322r-162,322r-282,0r303,-556r-288,-532r284,0r152,315r147,-315r276,0r-294,537r304,551r-287,0"},"y":{"d":"274,-1088r195,801r188,-801r248,0r-356,1236v-33,115,-73,191,-109,232v-51,58,-184,64,-289,54r0,-224v40,6,118,6,138,-24v28,-24,52,-95,54,-159r-327,-1115r258,0"},"z":{"d":"33,-222r465,-636r-432,0r0,-230r727,0r0,234r-453,619r467,0r0,235r-774,0r0,-222","w":840},"{":{"d":"443,26v-6,157,17,194,169,197r0,181v-305,-10,-373,-50,-376,-345r3,-217v6,-192,5,-275,-159,-282r0,-194v164,-7,164,-91,159,-282v-4,-162,-14,-405,54,-478v50,-53,153,-84,319,-84r0,181v-152,3,-171,40,-169,197r3,216v-6,218,-29,304,-190,347v162,43,183,129,190,347","w":653},"|":{"d":"141,512r0,-2047r189,0r0,2047r-189,0","w":471},"}":{"d":"573,-440v-164,7,-164,91,-159,282v4,162,14,405,-54,478v-50,53,-153,84,-319,84r0,-181v152,-3,171,-40,169,-197r-3,-216v7,-218,28,-304,190,-347v-161,-43,-183,-129,-190,-347r3,-216v6,-157,-17,-194,-169,-197r0,-181v305,10,373,50,376,345r-3,217v-6,192,-5,275,159,282r0,194","w":653},"~":{"d":"372,-474v-113,-39,-175,54,-209,138r-61,-187v40,-95,94,-166,206,-170v137,-4,229,125,366,142v65,-9,113,-84,143,-147r61,187v-55,114,-149,210,-298,147v-45,-19,-139,-86,-208,-110","w":981},"\u00a0":{"w":467},"\u00a1":{"d":"345,-679r64,703r0,359r-257,0r0,-359r65,-703r128,0xm404,-800r-246,0r0,-288r246,0r0,288","w":559},"\u00a2":{"d":"57,-539v0,-356,150,-605,505,-565r44,-189r86,0r-49,209v148,57,214,179,238,372r-240,0v-6,-51,-25,-92,-56,-121r-144,618v128,25,186,-77,198,-192r242,0v-26,269,-194,483,-496,427r-51,220r-86,0r57,-246v-170,-85,-248,-268,-248,-533xm506,-867v-166,-11,-205,144,-206,328v-1,127,22,212,65,274"},"\u00a3":{"d":"603,-227v84,44,192,-12,243,-58r71,218v-71,67,-220,132,-355,91v-83,-25,-142,-75,-245,-71v-53,2,-130,43,-176,70r-86,-197v92,-62,181,-167,181,-299v0,-71,-16,-123,-39,-181r-150,0r0,-125r98,0v-44,-111,-63,-157,-65,-292v-5,-225,177,-400,402,-400v256,0,406,200,401,468r-221,0v2,-130,-57,-234,-174,-238v-143,-4,-203,136,-163,277v10,36,50,131,73,185r235,0r0,125r-195,0v36,184,-49,330,-152,433v135,-51,215,-60,317,-6"},"\u00a4":{"d":"467,-503v103,0,171,-115,171,-228v0,-114,-67,-228,-171,-228v-102,0,-170,115,-170,228v0,113,68,227,170,228xm658,-354v-108,86,-273,84,-384,1r-155,195r-122,-122r166,-208v-76,-135,-76,-352,1,-486r-167,-209r122,-122r158,197v105,-85,274,-85,381,-1r157,-196r122,122r-166,208v77,138,77,349,1,489r165,206r-122,122"},"\u00a5":{"d":"31,-703r0,-123r217,0r-261,-603r248,0r245,613r234,-613r233,0r-249,603r225,0r0,123r-276,0r-62,149r338,0r0,123r-340,0r0,431r-212,0r0,-431r-340,0r0,-123r335,0r-65,-149r-270,0"},"\u00a6":{"d":"141,342r0,-683r189,0r0,683r-189,0xm141,-682r0,-683r189,0r0,683r-189,0","w":471},"\u00a7":{"d":"122,-1118v0,-222,129,-375,345,-375v216,0,345,162,345,384r-217,0v0,-90,-44,-162,-128,-163v-79,-1,-129,52,-128,132v0,25,19,54,55,86v36,32,94,72,174,117v117,67,197,129,242,187v45,58,67,128,67,211v0,122,-71,221,-168,268v62,62,111,162,111,262v0,228,-135,386,-357,386v-221,0,-357,-162,-357,-387r217,0v0,94,51,166,140,166v85,1,141,-57,140,-143v0,-27,-18,-58,-55,-91v-37,-33,-97,-73,-179,-120v-130,-74,-214,-136,-253,-187v-39,-51,-59,-124,-59,-219v0,-121,65,-222,159,-272v-53,-63,-94,-152,-94,-242xm620,-384v80,-45,64,-133,4,-196v-46,-49,-214,-139,-293,-198v-41,21,-75,59,-75,106v0,47,16,82,42,112v28,33,212,136,292,191"},"\u00a8":{"d":"10,-1491r212,0r0,234r-212,0r0,-234xm337,-1491r212,0r0,234r-212,0r0,-234","w":559},"\u00a9":{"d":"645,-477v83,0,135,-63,145,-142r153,0v-22,171,-124,318,-298,318v-230,0,-349,-195,-349,-442v0,-249,118,-443,349,-443v173,0,278,144,298,313r-144,0v-10,-79,-68,-138,-154,-137v-124,2,-179,125,-179,267v0,141,55,266,179,266xm619,-1508v391,0,637,357,637,773v0,418,-244,773,-637,773v-391,0,-636,-357,-636,-773v0,-417,245,-773,636,-773xm1078,-735v0,-315,-169,-595,-459,-595v-289,0,-458,281,-458,595v0,315,169,595,458,595v289,0,459,-281,459,-595","w":1237},"\u00aa":{"d":"405,-919v-48,62,-111,96,-189,96v-115,0,-180,-68,-179,-184v0,-130,68,-202,185,-219v53,-8,117,-13,159,-30v12,-5,19,-21,18,-39v-2,-51,-39,-68,-96,-68v-58,0,-91,31,-98,82r-148,0v26,-166,74,-225,257,-227v148,-1,233,53,233,193r0,273v0,65,2,108,7,132v4,25,17,39,30,48r0,23r-168,0v-5,-19,-9,-45,-11,-80xm261,-947v80,0,138,-43,138,-130r0,-76v-69,43,-203,16,-203,129v0,49,18,